tree
version=v4
num_class=3
num_tree_per_iteration=3
label_index=0
max_feature_idx=413
objective=multiclass num_class:3
feature_names=Column_0 Column_1 Column_2 Column_3 Column_4 Column_5 Column_6 Column_7 Column_8 Column_9 Column_10 Column_11 Column_12 Column_13 Column_14 Column_15 Column_16 Column_17 Column_18 Column_19 Column_20 Column_21 Column_22 Column_23 Column_24 Column_25 Column_26 Column_27 Column_28 Column_29 Column_30 Column_31 Column_32 Column_33 Column_34 Column_35 Column_36 Column_37 Column_38 Column_39 Column_40 Column_41 Column_42 Column_43 Column_44 Column_45 Column_46 Column_47 Column_48 Column_49 Column_50 Column_51 Column_52 Column_53 Column_54 Column_55 Column_56 Column_57 Column_58 Column_59 Column_60 Column_61 Column_62 Column_63 Column_64 Column_65 Column_66 Column_67 Column_68 Column_69 Column_70 Column_71 Column_72 Column_73 Column_74 Column_75 Column_76 Column_77 Column_78 Column_79 Column_80 Column_81 Column_82 Column_83 Column_84 Column_85 Column_86 Column_87 Column_88 Column_89 Column_90 Column_91 Column_92 Column_93 Column_94 Column_95 Column_96 Column_97 Column_98 Column_99 Column_100 Column_101 Column_102 Column_103 Column_104 Column_105 Column_106 Column_107 Column_108 Column_109 Column_110 Column_111 Column_112 Column_113 Column_114 Column_115 Column_116 Column_117 Column_118 Column_119 Column_120 Column_121 Column_122 Column_123 Column_124 Column_125 Column_126 Column_127 Column_128 Column_129 Column_130 Column_131 Column_132 Column_133 Column_134 Column_135 Column_136 Column_137 Column_138 Column_139 Column_140 Column_141 Column_142 Column_143 Column_144 Column_145 Column_146 Column_147 Column_148 Column_149 Column_150 Column_151 Column_152 Column_153 Column_154 Column_155 Column_156 Column_157 Column_158 Column_159 Column_160 Column_161 Column_162 Column_163 Column_164 Column_165 Column_166 Column_167 Column_168 Column_169 Column_170 Column_171 Column_172 Column_173 Column_174 Column_175 Column_176 Column_177 Column_178 Column_179 Column_180 Column_181 Column_182 Column_183 Column_184 Column_185 Column_186 Column_187 Column_188 Column_189 Column_190 Column_191 Column_192 Column_193 Column_194 Column_195 Column_196 Column_197 Column_198 Column_199 Column_200 Column_201 Column_202 Column_203 Column_204 Column_205 Column_206 Column_207 Column_208 Column_209 Column_210 Column_211 Column_212 Column_213 Column_214 Column_215 Column_216 Column_217 Column_218 Column_219 Column_220 Column_221 Column_222 Column_223 Column_224 Column_225 Column_226 Column_227 Column_228 Column_229 Column_230 Column_231 Column_232 Column_233 Column_234 Column_235 Column_236 Column_237 Column_238 Column_239 Column_240 Column_241 Column_242 Column_243 Column_244 Column_245 Column_246 Column_247 Column_248 Column_249 Column_250 Column_251 Column_252 Column_253 Column_254 Column_255 Column_256 Column_257 Column_258 Column_259 Column_260 Column_261 Column_262 Column_263 Column_264 Column_265 Column_266 Column_267 Column_268 Column_269 Column_270 Column_271 Column_272 Column_273 Column_274 Column_275 Column_276 Column_277 Column_278 Column_279 Column_280 Column_281 Column_282 Column_283 Column_284 Column_285 Column_286 Column_287 Column_288 Column_289 Column_290 Column_291 Column_292 Column_293 Column_294 Column_295 Column_296 Column_297 Column_298 Column_299 Column_300 Column_301 Column_302 Column_303 Column_304 Column_305 Column_306 Column_307 Column_308 Column_309 Column_310 Column_311 Column_312 Column_313 Column_314 Column_315 Column_316 Column_317 Column_318 Column_319 Column_320 Column_321 Column_322 Column_323 Column_324 Column_325 Column_326 Column_327 Column_328 Column_329 Column_330 Column_331 Column_332 Column_333 Column_334 Column_335 Column_336 Column_337 Column_338 Column_339 Column_340 Column_341 Column_342 Column_343 Column_344 Column_345 Column_346 Column_347 Column_348 Column_349 Column_350 Column_351 Column_352 Column_353 Column_354 Column_355 Column_356 Column_357 Column_358 Column_359 Column_360 Column_361 Column_362 Column_363 Column_364 Column_365 Column_366 Column_367 Column_368 Column_369 Column_370 Column_371 Column_372 Column_373 Column_374 Column_375 Column_376 Column_377 Column_378 Column_379 Column_380 Column_381 Column_382 Column_383 Column_384 Column_385 Column_386 Column_387 Column_388 Column_389 Column_390 Column_391 Column_392 Column_393 Column_394 Column_395 Column_396 Column_397 Column_398 Column_399 Column_400 Column_401 Column_402 Column_403 Column_404 Column_405 Column_406 Column_407 Column_408 Column_409 Column_410 Column_411 Column_412 Column_413
feature_infos=[-5.2662731616877299:10.846415669152691] [-0.80671782600463893:1.2395908058120062] [-1.3554633380434293:2.0629338100938104] [-1.0426717644525718:2.3409762794767253] [-1.0731841118517524:0.93180656418265884] [-0.5129891760425771:1.9493588689617927] [-1.764509919184998:3.088028523039164] [-1.5150621400691187:1.3465172333015525] [-1.3134324468105492:1.4512739329825708] [-1.9382097628205912:1.0607005586497751] [-2.5986975165047244:0.75168936427822597] [-2.5986975165047244:0.75168936427822597] [-7.1249603676767101:3.3608303621116562] [-2.6362408042057797:2.8487299151275565] [-2.0927109304472538:2.2694775435167407] [-0.90821572021273178:3.0549074225337347] [-1.4780003675692781:6.1916231614388666] none [-0.98726062633116152:1.0129037594826202] [-0.6119226578637601:1.6341934510008653] [-0.93564503999903315:1.4312840341606829] [-1.8945510928492719:2.9111394841342468] [-0.9378262484539216:1.0662955975571986] [-0.46260975141167021:2.1616492020508953] [-1.1084094137869043:0.90219370889631723] [-0.40519020777606646:2.4679767200905869] none none none [-1.98805959477601:0.50300303000356861] [-1.23196220012655:3.9447678529304686] [-0.39981408318772571:2.5011625204069352] [-3.8209946349085602:0.26171196129510688] [-0.72246191561368489:1.3841560065495833] [-0.40519020777606646:2.4679767200905869] none [-0.69471616076241538:2.7640834481398229] [-0.42353250363486994:3.7679544438567976] [-5.2662731616877299:10.846415669152691] [-0.80671782600463893:1.2395908058120062] [-1.3554633380434293:2.0629338100938104] [-1.0426717644525718:2.3409762794767253] [-1.0731841118517524:0.93180656418265884] [-0.5129891760425771:1.9493588689617927] [-1.5796464854099235:2.8845718429224689] [-2.8004966803644953:1.870205686887171] [-1.764509919184998:3.088028523039164] [-1.5150621400691187:1.3465172333015525] [-1.3134324468105492:1.4512739329825708] [-1.9382097628205912:1.0607005586497751] [-2.5986975165047244:0.75168936427822597] [-2.5986975165047244:0.75168936427822597] [-3.6476184651848675:2.7613222230059953] [-7.1249603676767101:3.3608303621116562] [-2.6362408042057797:2.8487299151275565] [-2.0927109304472538:2.2694775435167407] [-0.90821572021273178:3.0549074225337347] [-1.4780003675692781:6.1916231614388666] none [-0.98726062633116152:1.0129037594826202] [-0.6119226578637601:1.6341934510008653] [-0.93564503999903315:1.4312840341606829] [-2.1183633361312739:4.1276011873393914] [-1.380975188766125:2.5478782358086263] [-0.96707835641835338:2.4720756770450913] [-1.8945510928492719:2.9111394841342468] [-4.719828661798517:0.35455639154792429] [-3.0357618274429718:0.66696565559927701] [-0.96558244283852079:1.4561355810008567] [-2.597712694778826:1.1790177841167644] [-0.27371510245246933:2.645912657040534] [-0.9378262484539216:1.0662955975571986] [-0.46260975141167021:2.1616492020508953] [-1.1084094137869043:0.90219370889631723] [-0.40519020777606646:2.4679767200905869] none none none [-1.98805959477601:0.50300303000356861] [-1.23196220012655:3.9447678529304686] [-0.39981408318772571:2.5011625204069352] [-2.1299673297182484:3.1059928824511047] [-3.8209946349085602:0.26171196129510688] [-0.45242802727632148:2.2517394920764042] [-0.2754306972098739:3.6306773723119741] [-1.2500603206364826:0.8157173278729587] [-0.72246191561368489:1.3841560065495833] [-0.40519020777606646:2.4679767200905869] [-0.60203439673091896:1.6610346608600055] [-0.59219632006458833:1.7116098128550072] none [-1.3459492916691773:2.4838380225194534] none [-0.69471616076241538:2.7640834481398229] [-0.42353250363486994:3.7679544438567976] [-1.215144716109724:1.7527757169294282] [-0.83557015223550934:2.4690565874761674] [-0.85217955978368987:3.3867979123078844] [-1.1931775906936506:1.5902924770173938] [-1.8898536284440495:1.0137656434228948] [-1.7316864467931832:1.1400095103796466] [-3.0904604706728716:0.64388564554477656] [-2.9434671496070419:0.67845091371973687] [-6.7382449421528623:0.29790017268493318] [-1.2507754464927956:2.2086240584862264] [-0.97596976448341255:2.9126990782032505] [-0.88696967205347166:4.5950404374147924] [-1.0874093265703464:2.1389306896865725] [-1.7698357740185646:1.1838596814734978] [-1.8451840588992061:1.2448723059410007] [-3.1071345023146382:0.64868699764196336] [-3.5439638009812788:0.63153123899428909] [-6.9956884936237413:0.26267058824151845] [-1.4417437729581835:4.1044838031090674] [-1.0699600824819513:2.6255478038763749] [-1.2298263435629961:3.3702713359829279] [-0.61056481573495169:7.9712749692741163] [-1.3348904849908183:4.4728964783632952] [-1.4697847143000189:6.0515597985716632] [-1.8033441289155292:3.9188674573583726] [-1.7823095873533088:4.0591026423405214] [-1.7333515766991583:4.0696917801691903] [-1.6661008134338939:3.9101029858949894] [-1.5948810628476173:3.9698904404915725] [-1.5275779550026651:4.2985230940521966] [-1.4738604989828801:4.6674525072064501] [-1.4265182085936101:5.0393309333124074] [-1.3835009747122113:5.4089623798021247] [-1.3471675238979546:5.7694945752303566] [-1.3077704980919294:6.1302026894108064] [-5.3709559518008989:2.0037940032435393] [-4.4459199557876756:2.5027385586552371] [-3.4946499269953368:2.9357865774812764] [-2.8173569876550966:3.2177676273223255] [-2.4325809527068878:3.4587346835312882] [-2.2306632178082002:3.6919334895244194] [-2.0776315097034996:3.9243797537144736] [-1.9461224685908753:4.1403968820063879] [-1.8348771445431045:4.3279081508675592] [-1.7499262718982955:4.4918275203528557] [-1.6619257394942579:4.6169354087590824] [-1.7706235730883599:4.1582078984607511] [-0.97760820604464771:5.311091340398872] [-1.8038878796279136:3.757564008447607] [-1.8775485888557335:4.255204680649344] [-1.8307544396892257:4.4603189357325093] [-1.7257569338917058:4.3024246688102368] [-1.5936830715425849:4.4255362483179264] [-1.4567775900374322:4.2625164411724477] [-1.3855592920598043:4.4104011247415489] [-1.3444561951536436:4.428225355864539] [-1.2953933103270365:4.6912155041589454] [-1.2469767453060245:5.0406994684416864] [-1.1994859733085224:5.3803289980507207] [-3.9832218075263768:1.6196479122208556] [-3.0830788169089351:1.8963647304429589] [-2.8020682250567566:2.2321837624782312] [-2.3308681013973773:2.5636849253102545] [-1.9678657249582814:2.9070646349534002] [-1.8107298429297072:3.2600689473091129] [-1.6610956723813393:3.6053536993771194] [-1.5285434431630798:3.9308939393237732] [-1.43174907872746:4.2226260131631959] [-1.3524385973292088:4.4709128126166515] [-1.2826170110245092:4.6708315823691331] [-1.4548080069386613:3.3523141365554321] [-1.8719405091654837:5.9891672797753444] [-1.6101455008805359:4.6152738694440707] [-1.5564759352108364:5.8195933248843792] [-0.44442427454250638:15.912164956731358] [-0.79089595241998856:10.866847044904441] [-0.57409187070932777:13.852591060286869] [-1.8719405091654837:5.9891672797753444] [-1.8026357947534184:4.1652854434810438] [-1.7131443716293315:4.9615492918661781] [-0.44442427454250638:15.912164956731358] [-0.83588490227808154:10.220414984647192] [-0.65009085422566959:12.246851039897438] [-2.0867846539390431:5.071468531193152] [-2.245165343447928:3.2610574347982935] [-0.44986089274186281:15.178629769712709] [-0.87986101158093122:6.8928463882742692] [-1.52298253522578:7.1220919033990882] [-2.6139068201328359:2.9580296963159856] [-3.9916383340207844:2.0612889121066407] [-1.2893740384567065:5.9000425985286027] [-1.1194214096916653:7.1732704098376017] [-1.1126627102329878:6.616245333270701] [-0.31732475232847546:15.914327435141491] [-0.33289573571815695:13.031478300080186] [-0.28987707229568616:13.095149008947748] [-1.2893740384567065:5.9000425985286027] [-1.1382620277234914:6.5005707964231014] [-1.1603019202815066:7.6131431336677249] [-0.31732475232847546:15.914327435141491] [-0.3345250094544463:12.214826496016467] [-0.29946306845229576:10.538296682758487] [-1.2019999682366331:4.8441340225594676] [-1.450397799800867:7.8452494326199673] [-0.32383084467440232:15.074497609628171] [-0.32671775664271685:12.991553805872174] [-1.9654228237227493:3.6225039774868093] [-1.9597603537403558:3.5217255686906159] [-3.3369376630800573:2.6490055985424377] [-1.4276935539435911:4.4403671251088985] [-1.4506798879398224:4.8923723239013697] [-3.0248392646956184:2.973277830919689] [-3.024839264695669:2.9732778309196819] [-1.1991855333533612:7.6277741400420789] [-1.6179586607912597:6.4764459621937656] [-2.2798771660786126:3.6085839221765559] [-0.55482661071535033:7.3070631276911797] [-3.6148404425693785:2.5880274596029755] [-2.2684771585575936:3.8222030049421827] [-2.2667158417335664:3.6078401906435476] [-0.8885482776562762:6.8752735637062656] [-1.4747763056193819:4.4664982169792165] [-1.9537441242959188:3.1870681975411284] [-1.3109442065751795:4.7880921706365722] [-3.8245732053194157:2.1676814160220799] [-3.382675076205274:2.5884523527639018] [-6.6237888816112909:2.3145269698727491] [-3.3897961416777367:1.9150162231110719] [-2.2684771585575936:3.8222030049421827] [-3.3799734567366997:2.4335351848289424] [-4.7117031518239507:1.4844372318147985] [-1.5680055215095858:3.74817534728315] [-1.4457754739809177:5.376804727297599] [-2.7017292900851424:2.6429889250019931] [-2.7017292900852312:2.642988925001708] [-0.91774111421672555:6.0826033383382008] [-2.087185581107406:6.8121836294314404] [-2.0685358682917414:4.0089117270975301] [-1.5189741080586721:4.3801126602402034] [-2.8795400183821025:2.6496506044824675] [-2.4334911416896263:2.8554764153957444] [-2.3536020199613001:2.9648199871230259] [-1.6778065693098407:3.8018311777777303] [-1.6315505692202645:3.6711539557120596] [-2.1627060832677372:2.9924481066055533] [-1.4655851574779704:3.74789470924547] [-3.049272142385048:2.1108533612512757] [-3.0786273805552948:3.0700029268699618] [-3.3803087076345122:2.2875252806839552] [-3.5207212867146587:2.5366777902383411] [-2.4334911416896263:2.8554764153957444] [-3.6617783480051536:2.2154069876685005] [-4.9768957665583473:1.5091049244592882] [-1.156528374329381:6.231059395995854] [-1.3863127216714852:7.0505458622264001] [-1.3944272625741385:7.0552849176904466] [-1.0167034868675222:4.1791389512945907] [-0.72930286343310002:14.040390517750824] [-2.5106195761161905:3.831628386163938] [-0.77070991611177664:7.5110169825560753] [-0.79511499663877661:3.4107785150582659] [-0.79511499021461451:3.4107785096905214] [-0.67720093521097369:8.3900188093090957] [-2.9395741711296348:5.6196292193312871] [-1.0320892435542766:5.2566770913656855] [-1.6268711901561241:1.6971340535457438] [-1.3825665987138813:3.1107757867554899] [-3.0230261349117611:1.3524569396772952] [-3.1236111006982381:1.3242709311378316] [-2.045119035997653:1.3656317807084739] [-2.5119150524573146:3.835388950036521] [-3.1298534278772858:3.1704849163364286] [-2.4956196966975726:3.8362435329064768] [-1.5510051485586476:2.85625795369769] [-1.6088149602453798:3.112148619859703] [-2.6265544170725001:0.54600486324186615] [-1.4222445367833656:3.7795865423102906] [-3.0230261349117611:1.3524569396772952] [-5.1339936448934402:1.0423571648557193] [-7.475578092182964:0.77215388488928527] [-4.3540253854996829:3.2027934387325705] [-1.3993484983877285:2.5492514697690418] [-6.7932691085839885:8.8716227079797392] [-0.77038026662438497:5.4936356259721961] [-0.27532134040858497:6.338280422648416] [-0.60749046388597094:6.5579191834182042] [-0.93831931376941091:5.118938262647946] [-0.93831931376970956:5.1189382626484248] [-0.69089667751993955:7.5848211055641963] [-0.63132895120409238:8.1633155342153341] [-0.80106044567858126:5.4069504940045769] [-1.5790694590934387:2.0824391402355236] [-1.3133496222518917:3.6318922953340591] [-3.4481391520764135:1.2892422033155777] [-3.5343430961265212:1.2168004465171096] [-2.0177250209010986:1.6035282289755275] [-0.29631316120682716:6.3928330108345062] [-0.53210029315714724:5.4143351097801089] [-0.25754769208665534:6.370666241746898] [-1.5480916595102541:3.2474738754169228] [-1.5379957160627029:3.6256131602132351] [-5.8547381217647514:1.2829072246584621] [-2.2477809416894128:4.6619053451963719] [-3.4481391520764135:1.2892422033155777] [-5.3779599063150538:0.80702350993646466] [-6.6580111893190415:0.58549476753493002] [-1.7386086998839534:6.0275886748519021] [-1.2796546945574268:8.1394205428169339] [-1.3052418369925027:7.3990247052233933] [-0.59701485718401415:11.666483846397892] [-1.5714732983202553:3.9990994696118736] [-1.6613954626539733:3.4554676791929912] [-3.0241298840659923:2.7609199592954896] [-3.0241298840448834:2.7609199593184357] [-0.82822434971644665:8.2394368215494183] [-0.92913379371894644:5.9678763597771862] [-2.413707965192518:2.4970350421885952] [-0.12464827615288991:8.6019788284741736] [-5.6197092590742903:1.9736861144665261] [-1.1183685131086305:7.2715789468176215] [-0.90223298372959038:7.7297673876182973] [-0.22437238298768813:9.4448068927707816] [-1.597498306333285:3.9532347496033329] [-2.157902228875122:3.0630420629461814] [-1.5540894080130137:4.0107543640916887] [-5.7347847999653148:2.224643617218657] [-5.0119402327380627:1.6179455091328938] [-7.7254144326775167:1.2994623673095136] [-2.621856780381723:2.6106775652718039] [-1.1183685131086305:7.2715789468176215] [-2.4228858172517742:2.5217631617058642] [-3.3776735582488051:1.6827054875592302] [-0.97401584449741696:7.6476756950198137] [-0.97657356699118869:4.6792484132821919] [-0.78873102464506772:4.2285821707672033] [-0.2177416907862583:2.3520684183709748] [-1.128533108675128:5.5700541895755711] [-0.96401668235619054:4.8174852198347011] [-0.95519573131886015:4.1566875844262361] [-1.0498529541654102:4.4726813472015161] [-0.72152301959304366:12.959204012841443] [-2.8276992950918034:3.3709331161541756] [-0.60883017403980377:6.5382441833865723] [-1.3096891182112191:5.406386725665711] [-1.309689122755531:5.4063867252911981] [-0.47869872824442944:4.7347147908823608] [-1.3691192813254145:3.493043126291576] [-0.9157395296089309:5.4902997888078708] [-1.758239786337074:1.5169711759154956] [-1.3476705630707493:3.4885159362968778] [-3.2046904776356677:1.2186445219282542] [-3.4271286095912759:1.1957292473483623] [-2.1331795315042346:1.2509708033400895] [-2.830066119739588:3.3656389233617401] [-3.6762670889008797:2.8424362966425942] [-2.8204823572048028:3.4036972603930686] [-1.4803617565012956:3.1195667891885757] [-1.5242104589751428:3.3452385659756065] [-7.1135691213428247:0.9845768657125783] [-1.3367742136945056:5.2536559781929002] [-3.2046904776356677:1.2186445219282542] [-5.4071429805590059:0.92944448721839823] [-6.5754603035261043:0.61186555876002868] [-2.4519800542351544:3.4115460777295756] [-1.3080582513467711:3.1915960603974884] [-3.301222829410964:9.7918186163188086] [-0.51792587565491932:8.5370211314108513] [-0.27429279628976538:6.3267134196952473] [-0.26239101944586801:5.0289213069697656] [-1.3539088274544604:4.8415698984487596] [-1.3539088274545472:4.8415698984484541] [-0.19849861202251032:12.33073694425312] [-0.19166310171114523:13.517241692187234] [-0.52744200139635788:5.6069048409356155] [-1.6819926806990739:1.6509242150146737] [-1.067922909516146:3.4494502041164443] [-3.1935729339280208:0.99156276462818216] [-3.1728228945159267:0.9450308010728049] [-2.0313269176263464:1.2870352557468754] [-0.29207149029159596:6.6465094941243503] [-0.46739847769579568:5.1695125155644472] [-0.26291129382843487:6.4699126453833857] [-1.2371731122678988:3.2972699037147732] [-1.1924961523547417:3.615678401735126] [-3.5400516612014954:1.6114186322625472] [-2.3049507041675423:4.1776157512305678] [-3.1935729339280208:0.99156276462818216] [-5.5469222739367163:0.53996676092651774] [-5.4407810728134551:0.27080817838382032] [-1.1068356137002104:7.0924577985989288] [-0.87659871552672353:9.1765034440932265] [-1.0075038639286469:7.1377160806232753] [-0.47715707496180881:10.689162843684358] [-1.6348903023970009:3.270813782592132] [-1.3219592504322806:5.0600929209736805] [-2.8129866431194368:2.4697752073991861] [-2.8129866431573576:2.4697752073954788] [-1.0423114627825942:4.965095253262283] [-2.7482082477344814:5.7350649298949925] [-2.0101836234041621:3.8728174095890147] [-1.3659757220330082:3.9998752864511653] [-2.8898596397419114:2.657838536174713] [-1.7254337594364262:4.7321383103383345] [-1.475637439113707:5.6556458210101752] [-1.4538525944537404:4.105995763173504] [-1.6992567687541029:3.1928630528995008] [-2.2643792156696705:2.6296283785064234] [-1.6243202767649212:3.2708366247574694] [-3.0552363358555539:2.5281710233859829] [-3.1934568697214569:2.4595331595127532] [-3.3389374514748953:1.8225893491929377] [-2.6126305033976256:2.3559804472856367] [-1.7254337594364262:4.7321383103383345] [-3.6442692528887473:2.1205647978290663] [-5.0113511513105129:1.3529449726197829] [-0.85785975095994327:6.6579541696403792] [-0.95866793326206157:5.2077120778409913] [-1.8680748166849368:4.466656808735503] [-0.86157557100972693:9.258581092275179]
tree_sizes=1693 1670 1782 2404 2271 2282 2522 2487 2384 2290 2175 2392 2405 2288 2395 2397 2274 2376 2287 2288 2387 2384 2388 2381 2498 2387 2289 2503 2270 2404 2496 2380 2502 2291 2274 2272 2390 2393 2282 2286 2176 2601 2399 2497 2391 2500 2379 2286 2497 2276 2297 2287 2384 2181 2509 2388 2169 2613 2391 2401 2398 2708 2499 2396 2488 2372 2398 2392 2379 2492 2494 2399 2491 2497 2512 2502 2392 2507 2613 2607 2389 2394 2714 2390 2400 2723 2393 2397 2603 2400 2389 2400 2601 2394 2384 2294 2291 2712 2492 2607 2398 2488 2500 2390 2707 2401 2613 2403 2613 2714 2507 2614 2603 2398 2397 2613 2603 2506 2617 2597 2495 2189 2506 2616 2723 2487 2714 2509 2506 2404 2606 2491 2723 2503 2609 2622 2512 2619 2510 2833 2735 2507 2840 2487 2397 2512 2616 2607 2946 2391 2406 2510 2624 2517 2508 2384 2512 2514 2850 2734 2606 2293 2631 3061 2612 2736 2404 2512 2847 2408 2403 2622 2622 2291 2520 2518 2619 2740 2412 2849 2837 2530 2402 2516 2531 2505

Tree=0
num_leaves=15
num_cat=0
split_feature=36 0 132 4 385 232 37 255 117 118 305 3 4 0
split_gain=69.2744 69.4273 29.2868 15.8042 23.43 8.81993 8.11265 7.30032 2.8555 2.85254 0.561674 0.478066 1.42109e-14 7.10543e-15
threshold=-0.44815115577332204 -0.044016066000914095 0.93674326618033354 1.0000000180025095e-35 -0.11297471638515333 1.4556248378596801 1.1193604715041086 -0.36584446705024526 -0.49494438308052469 -0.87103332301605241 0.53547973259420989 1.343841840641004 0.18464637981290702 0.79985881087547106
decision_type=2 2 2 2 2 2 2 2 2 2 2 2 2 2
left_child=5 2 6 8 -5 9 7 -2 -3 -1 13 12 -9 -11
right_child=1 3 -4 4 -6 -7 -8 11 -10 10 -12 -13 -14 -15
leaf_value=-1.0891321297060315 -1.0335138123046745 -1.0891321297060315 -1.101491755795222 -1.1194693937431353 -0.99643493403710326 -1.0644128775276507 -1.0485219296986914 -0.97789549490331762 -1.1262110079736027 -1.1262110079736027 -1.1141854258327688 -0.99272704621034613 -0.97789549490331762 -1.1262110079736027
leaf_weight=6.7423832416534415 8.0908598899841291 6.742383241653445 8.0908598899841291 7.4166215658187857 8.0908598899841291 8.0908598899841291 7.0795024037361136 11.124932348728182 22.586983859539032 36.071750342845917 12.473408997058867 6.7423832416534415 16.855958104133606 7.7537407279014579
leaf_count=20 24 20 24 22 24 24 21 33 67 107 37 20 50 23
internal_value=-1.07562 -1.04938 -1.01325 -1.0961 -1.05528 -1.11356 -0.99894 -0.990742 -1.11769 -1.11987 -1.12355 -0.980775 -0.977895 -1.12621
internal_weight=173.953 102.821 57.9845 44.8368 15.5075 71.1321 49.8936 42.8141 29.3294 63.0413 56.2989 34.7233 27.9809 43.8255
internal_count=516 305 172 133 46 211 148 127 87 187 167 103 83 130
is_linear=0
shrinkage=1


Tree=1
num_leaves=15
num_cat=0
split_feature=36 88 248 88 0 67 69 337 98 178 62 305 0 211
split_gain=81.0312 21.7034 16.6392 11.5337 10.7062 9.29566 10.4799 10.6983 6.30721 2.66493 2.62209 2.1496 7.10543e-15 7.10543e-15
threshold=-0.69255654379372833 -0.59779532865177565 -0.7190455451806439 1.6584779416745541 0.41401592328974418 -1.1823064938949404 1.165371773116249 -0.21565852029589153 1.278633518935125 0.62758835796302737 0.084307762935553074 -0.87676114669114968 0.54971521367920262 -0.14161225235974489
decision_type=2 2 2 2 2 2 2 2 2 2 2 2 2 2
left_child=1 2 -1 -3 9 -2 8 -8 11 -4 -9 -7 13 -13
right_child=5 3 4 -5 -6 6 7 10 -10 -11 -12 12 -14 -15
leaf_value=-1.0978833309047307 -1.0790783474657253 -1.154298281221747 -1.0038584137097035 -1.0707205770483896 -1.0826602490731549 -1.1242103077193384 -1.0696758557462227 -1.1091663209681339 -1.1076100464766301 -1.03609552817657 -1.1494453822697457 -1.154298281221747 -1.154298281221747 -1.154298281221747
leaf_weight=10.63547897338867 7.976609230041503 7.6442505121231088 20.606240510940555 8.9736853837966919 6.979533076286315 6.647174358367919 10.635478973388674 6.6471743583679226 9.6384028196334821 9.3060441017150861 10.303120255470274 37.888893842697136 6.979533076286315 10.635478973388677
leaf_count=32 24 23 62 27 21 20 32 20 29 28 31 114 21 32
internal_value=-1.10444 -1.05998 -1.04278 -1.10917 -1.0269 -1.13101 -1.13518 -1.10899 -1.14524 -1.01389 -1.13365 -1.15108 -1.1543 -1.1543
internal_weight=171.497 64.1452 47.5273 16.6179 36.8918 107.352 99.3753 27.5858 71.7895 29.9123 16.9503 62.1511 55.5039 48.5244
internal_count=516 193 143 50 111 323 299 83 216 90 51 187 167 146
is_linear=0
shrinkage=1


Tree=2
num_leaves=16
num_cat=0
split_feature=0 101 8 117 361 340 110 212 14 206 9 91 6 2 0
split_gain=63.9754 29.4381 28.4897 27.4081 13.5028 9.88774 9.86145 6.83714 4.62688 9.01353 3.09076 1.89179 0.531546 0.0775171 7.10543e-15
threshold=0.49912526908119642 0.6414705215714106 -0.69759489049619072 -0.73747338471089063 -0.49069130273677281 -0.20040327059138671 -0.39669155296000058 -0.54121446462057032 -0.53225289018196931 -0.38643619491567427 0.69346898463066931 -0.37839798016987569 0.90349742567096236 -0.36165340556038922 0.065115729061504771
decision_type=2 2 2 2 2 2 2 2 2 2 2 2 2 2 2
left_child=1 2 7 -4 -3 -2 -5 -1 9 -6 13 -7 14 -8 -10
right_child=5 4 3 6 8 11 10 -9 12 -11 -12 -13 -14 -15 -16
leaf_value=-1.10523862427655 -1.0976714802143652 -1.0969835580268938 -1.1405519632334116 -1.1009145419553015 -1.0933943987879131 -1.0459626624561036 -1.0220000395925188 -1.1657757767740269 -1.1657757767740269 -1.1657757767740269 -1.059835759903442 -1.0144328955303341 -1.1506414886496577 -1.0144328955303341 -1.1657757767740269
leaf_weight=6.6075128316879299 6.6075128316879299 10.902396172285078 11.893523097038267 6.9378884732723263 7.598639756441119 7.9290153980255189 6.607512831687929 15.858030796051024 39.97545263171196 9.9112692475318891 6.6075128316879264 11.893523097038264 6.6075128316879264 6.9378884732723236 7.5986397564411154
leaf_count=20 20 33 36 21 23 24 20 48 121 30 20 36 20 21 23
internal_value=-1.11621 -1.12933 -1.10312 -1.07728 -1.14883 -1.0447 -1.0495 -1.14797 -1.15671 -1.13436 -1.0318 -1.02704 -1.16393 -1.01812 -1.16578
internal_weight=170.474 144.044 61.4499 38.9843 82.5939 26.4301 27.0908 22.4655 71.6915 17.5099 20.1529 19.8225 54.1816 13.5454 47.5741
internal_count=516 436 186 118 250 80 82 68 217 53 61 60 164 41 144
is_linear=0
shrinkage=1


Tree=3
num_leaves=21
num_cat=0
split_feature=36 0 132 4 385 232 196 116 249 118 347 305 255 341 142 144 215 14 67 8
split_gain=62.5655 61.4079 25.4724 14.6731 20.8713 8.30792 7.48867 9.11195 2.81812 2.72534 2.63635 0.546787 0.0199212 0.00349369 0.000682709 0.000310408 0.000225045 0.000185944 0.000124848 0.000104086
threshold=-0.44815115577332204 -0.044016066000914095 0.93674326618033354 1.0000000180025095e-35 -0.11297471638515333 1.4556248378596801 -0.27360513078373611 -0.27477289660156706 -0.79117182180857348 -0.87103332301605241 0.68932336429335528 0.53547973259420989 -0.28038592683972935 -0.088819437516696478 -0.2245516752402372 1.0000000180025095e-35 -0.3950976166112346 0.66545389106113684 1.0000000180025095e-35 -0.42049411812693932
decision_type=2 2 2 2 2 2 2 2 2 2 2 2 2 2 2 2 2 2 2 2
left_child=5 2 6 8 -5 9 7 -2 -3 -1 12 16 -8 -14 -10 -16 -11 18 -18 -20
right_child=1 3 -4 4 -6 -7 10 -9 14 11 -12 -13 13 -15 15 -17 17 -19 19 -21
leaf_value=-0.0127992232099132 -0.0010583050588806352 -0.012558437963448139 -0.025155567399080148 -0.042789856765559763 0.073011524205167044 0.010898236687017756 0.092677330796242449 0.07461508419930811 -0.050055063727102889 -0.049494805671272034 0.055998108716486028 -0.0372801406198962 0.089166919814348974 0.090519618093537271 -0.049210244963192797 -0.049659034538726811 -0.049313120971981261 -0.049446798165496582 -0.04921731263722829 -0.048974783221886461
leaf_weight=6.6879137158393851 6.8859805166721371 6.668674141168597 8.0140363276004773 7.2807044982910147 8.3574837446212751 8.1112407147884351 7.2539174854755393 9.4197526574134809 6.6712957024574306 9.2348505556583387 6.9258345663547507 12.218986630439757 13.69361460208893 7.3276076614856747 7.2111348807811728 8.2733028233051282 8.5417651832103747 6.9190775156021109 7.8679325282573656 10.106433808803564
leaf_count=20 20 20 24 22 24 24 21 27 20 28 20 37 39 21 22 25 26 21 24 31
internal_value=-9.77187e-06 0.0245583 0.0577679 -0.0198984 0.0190976 -0.0366683 0.0706701 0.0426579 -0.041055 -0.0429341 0.0836459 -0.0466058 0.0904181 0.0896384 -0.0496322 -0.04945 -0.0492763 -0.049216 -0.0491557 -0.0490809
internal_weight=173.672 103.983 59.5207 44.4626 15.6382 69.6882 51.5067 16.3057 28.8244 61.577 35.201 54.889 28.2751 21.0212 22.1557 15.4844 42.6701 33.4352 26.5161 17.9744
internal_count=516 305 172 133 46 211 148 47 87 187 101 167 81 60 67 47 130 102 81 55
is_linear=0
shrinkage=0.05


Tree=4
num_leaves=20
num_cat=0
split_feature=36 88 248 88 0 30 36 149 145 108 120 173 354 120 98 52 20 208 9
split_gain=72.8099 18.8834 14.3109 10.6201 8.94948 8.88173 12.48 11.0478 9.54338 8.75176 3.31632 2.23593 0.125395 0.00283916 0.0011637 0.000489878 0.000260404 0.000236117 0.00010204
threshold=-0.69255654379372833 -0.59779532865177565 -0.7190455451806439 1.6584779416745541 0.41401592328974418 -1.224097145825813 1.6085451753627338 -0.5664790297665091 1.0000000180025095e-35 -1.0000000180025095e-35 -0.2418014398183225 0.97036446693318534 -0.84503685292600206 -0.075876638769335328 1.1492682932408647 0.081848502753812308 -0.6446442305773783 0.22722955594480274 0.40837167624259346
decision_type=2 2 2 2 2 2 2 2 2 2 2 2 2 2 2 2 2 2 2
left_child=1 2 -1 -3 11 7 14 -2 10 -9 -8 12 -4 -14 15 16 -7 -17 -18
right_child=5 3 4 -5 -6 6 8 9 -10 -11 -12 -13 13 -15 -16 17 18 -19 -20
leaf_value=0.0060067252975054639 0.054608599760954835 -0.04881253942195303 0.084451416796848047 0.031606026964021365 0.020591575622885976 -0.048956484450326077 -0.048989200358028492 0.019910258953822924 0.033029507262824158 -0.045303019126921786 -0.0050946161553861256 0.057788064298114117 0.093075239040351226 0.091792768382380902 -0.049509130053846571 -0.04923712640978295 -0.04849007441361225 -0.048839008600461281 -0.0487118059429614
leaf_weight=10.68997687101364 6.6822392940521267 7.4701505303382882 6.942429423332217 9.1145628988742828 7.0473613440990439 7.4937172830104819 9.4547414779663104 8.613009870052343 9.6430081427097303 12.77629399299621 7.897183537483218 6.8568432033061972 8.2750289142131841 9.019166499376297 7.2565174996852866 8.1978834867477399 9.3456122875213659 6.8247746825218192 11.664995580911636
leaf_count=32 20 23 20 27 21 23 29 26 29 39 24 20 24 26 22 25 29 21 36
internal_value=9.37335e-06 0.0414795 0.0571353 -0.00461641 0.0714655 -0.0256193 -0.0343204 -0.00151077 -0.00684979 -0.019043 -0.029012 0.0829961 0.0901278 0.0924064 -0.0489229 -0.0488252 -0.0487034 -0.0490563 -0.0486132
internal_weight=171.265 65.4155 48.8308 16.5847 38.1408 105.85 77.7784 28.0715 26.9949 21.3893 17.3519 31.0935 24.2366 17.2942 50.7835 43.527 28.5043 15.0227 21.0106
internal_count=516 193 143 50 111 323 238 85 82 65 53 90 70 50 156 134 88 46 65
is_linear=0
shrinkage=0.05


Tree=5
num_leaves=20
num_cat=0
split_feature=0 101 8 117 361 182 340 219 14 206 88 91 202 248 66 178 248 201 271
split_gain=56.4776 27.2355 25.8714 24.0676 12.499 9.06652 8.37969 6.47206 4.43184 8.45768 2.71784 1.53531 0.545988 0.000241511 0.000183253 0.000147578 0.000125391 5.08239e-05 4.9043e-05
threshold=0.49912526908119642 0.6414705215714106 -0.69759489049619072 -0.73747338471089063 -0.49069130273677281 0.21974627137545075 -0.20040327059138671 -0.51759223187018921 -0.53225289018196931 -0.38643619491567427 -0.57406957740372511 -0.37839798016987569 -1.0560781611095067 -0.72899160705007471 0.27235740594290653 0.52365658743811228 -0.23795591153152859 -0.05018559099370961 0.048627168797148686
decision_type=2 2 2 2 2 2 2 2 2 2 2 2 2 2 2 2 2 2 2
left_child=1 2 7 -4 -3 10 -2 -1 9 -6 -5 -8 -10 -14 -15 -9 17 -16 -18
right_child=6 4 3 5 8 -7 11 15 12 -11 -12 -13 13 14 16 -17 18 -19 -20
leaf_value=0.010456802695700033 0.017240700279657347 0.017869116895171146 -0.023418990689759753 0.05743065075082298 0.021784075629235691 0.013035802818615969 0.064856061055031541 -0.048369256322237986 -0.032947971191214565 -0.048529933297145361 0.094027802225014362 0.092745172674397747 -0.048725221241149641 -0.048635265585677843 -0.04817940309236151 -0.048682479816094047 -0.048582384860552663 -0.04835808339604479 -0.048391824718026319
leaf_weight=6.6374769210815456 6.6811181008815792 11.028145164251326 11.735944539308546 8.7817823290824908 7.662982344627383 7.0722352266311637 8.1827416419982963 6.426065355539321 6.441036492586135 9.6778832972049695 12.012350440025331 12.432294219732279 8.4252111017703992 8.408466160297392 7.3541644215583792 9.0661076009273511 6.4602014124393516 8.6733709871768934 7.0731132328510284
leaf_count=20 20 33 36 26 23 21 24 20 20 30 35 36 26 26 23 28 20 27 22
internal_value=5.39306e-07 -0.0125848 0.0124475 0.036644 -0.0316145 0.0619396 0.0659039 -0.0308535 -0.0393908 -0.017458 0.0785721 0.0816751 -0.0465892 -0.048483 -0.0484293 -0.0485526 -0.0483707 -0.0482761 -0.0484828
internal_weight=170.233 142.937 61.732 39.6023 81.2046 27.8664 27.2962 22.1296 70.1764 17.3409 20.7941 20.615 52.8356 46.3945 37.9693 15.4922 29.5609 16.0275 13.5333
internal_count=516 436 186 118 250 82 80 68 217 53 61 60 164 144 118 48 92 50 42
is_linear=0
shrinkage=0.05


Tree=6
num_leaves=22
num_cat=0
split_feature=36 0 203 4 385 358 232 271 249 118 305 359 255 288 142 203 215 14 131 67 337
split_gain=56.7026 54.5198 22.4636 13.5879 18.5906 8.20742 7.84698 3.45694 2.70946 2.59548 0.538224 0.162117 0.0187736 0.0110893 0.00158172 0.000684121 0.000682979 0.000474688 0.000309745 0.000234407 0.000122011
threshold=-0.44815115577332204 -0.044016066000914095 0.95782301266305603 1.0000000180025095e-35 -0.11297471638515333 0.69202714010252908 1.4556248378596801 -0.69894031130309986 -0.79117182180857348 -0.87103332301605241 0.53547973259420989 0.89386479950683773 -0.25559048025604175 0.17094441749123676 -0.2245516752402372 -0.096945996694952602 -0.3950976166112346 0.66545389106113684 0.55662251150942843 1.0000000180025095e-35 -0.098345451951272644
decision_type=2 2 2 2 2 2 2 2 2 2 2 2 2 2 2 2 2 2 2 2 2
left_child=6 2 5 8 -5 7 9 -2 -3 -1 16 12 -9 -14 -10 -16 -11 18 19 -18 -21
right_child=1 3 -4 4 -6 -7 -8 11 14 10 -12 -13 13 -15 15 -17 17 -19 -20 20 -22
leaf_value=-0.012277822684622441 0.047681714150103076 -0.012068541398690713 -0.021732492196212136 -0.041709691183652448 0.067556205751071421 0.024537429487232663 0.010598268763635711 0.086816428179761262 -0.049259166655414147 -0.048493102067121929 -0.036066235113160393 0.076156180499808102 0.085316676709825776 0.082861472526339297 -0.048700612004028823 -0.048023704406584974 -0.048240779250310541 -0.048374561595784057 -0.047598463004276031 -0.048030017151502818 -0.047719849317087643
leaf_weight=6.6448090672492972 8.8435129523277265 6.6263524591922787 8.4718382954597455 7.127666473388671 8.5774423480033857 9.7003787755966169 8.1282095611095411 7.0927590131759599 6.557263761758807 9.0201334953308088 11.954164206981657 7.2045977413654319 7.4958146214485266 11.900796592235563 6.7978844642639187 8.2779056727886147 6.7239917516708418 6.7451408505439749 6.2935932278633109 6.3684849739074672 6.3142994046211278
leaf_count=20 25 20 25 22 24 28 24 20 20 28 37 20 21 33 21 26 21 21 20 20 20
internal_value=-2.98814e-05 0.0230836 0.0537914 -0.0193203 0.0179666 0.0660397 -0.0355084 0.075504 -0.0400423 -0.0417478 -0.0454135 0.0828065 0.0846152 0.0838103 -0.0486109 -0.0483289 -0.0481082 -0.0480013 -0.0479033 -0.0480021 -0.0478756
internal_weight=172.867 104.674 60.7097 43.9645 15.7051 52.2379 68.1928 42.5375 28.2594 60.0646 53.4198 33.694 26.4894 19.3966 21.6331 15.0758 41.4656 32.4455 25.7004 19.4068 12.6828
internal_count=516 305 172 133 46 147 211 119 87 187 167 94 74 54 67 47 130 102 81 61 40
is_linear=0
shrinkage=0.05


Tree=7
num_leaves=22
num_cat=0
split_feature=36 88 248 88 412 0 148 69 95 67 98 337 213 108 400 156 224 222 275 110 108
split_gain=65.6268 16.5801 12.4999 9.79898 8.50742 7.63527 7.449 6.32774 8.34904 5.04976 2.97208 2.01214 1.91127 0.140548 0.136191 0.0133109 0.00102925 0.00077195 0.000618827 0.000390581 0.00015206
threshold=-0.69255654379372833 -0.59779532865177565 -0.7190455451806439 1.6584779416745541 0.41435015175049383 0.41401592328974418 -0.55394039921486127 1.165371773116249 -0.69958328117402691 -1.1673758621041239 1.2658271662336589 -0.50771322995711266 -0.2892006420969368 0.95342242347647777 -0.60790497240911312 0.28929545962756925 0.48149020950257521 0.94669188990357445 0.027495878985730492 0.40434735628966106 -0.40375962087305228
decision_type=2 2 2 2 2 2 2 2 2 2 2 2 2 2 2 2 2 2 2 2 2
left_child=1 2 -1 -3 7 11 -6 9 -9 -2 14 -4 -10 15 -11 -13 17 18 19 -16 -20
right_child=4 3 5 -5 6 -7 -8 8 12 10 -12 13 -14 -15 16 -17 -18 -19 20 -21 -22
leaf_value=0.0054889933929216485 0.0028814813863870642 -0.047859117470068428 0.05471814851903968 0.0296841099973046 0.045478098427987806 0.019508060310384014 -0.020317949760362591 0.039028687668031505 -0.010514684362697715 -0.040108031388801389 -0.011340064592627458 0.085051515483540355 -0.048880113797191205 0.078031588227449877 -0.048119740115846722 0.087848231393302834 -0.048436050812015734 -0.048243446355676366 -0.047279495992383458 -0.047654879970457559 -0.047616194862631994
leaf_weight=10.738618761301039 6.6300914883613578 7.2890394926071176 7.8022667467594102 9.2370367646217346 7.3192590773105648 7.1067279279232016 10.433928877115248 6.7050848603248623 6.4996074438095102 6.3483896255493155 6.5643369853496543 8.9359355270862668 6.4853968322277042 7.14931696653366 8.9352099597454124 8.121076822280882 7.7156717777252188 7.9988483488559714 7.1706095039844513 9.141634672880171 6.2989788055419904
leaf_count=32 20 23 22 27 22 21 32 20 20 20 20 25 20 20 28 23 24 25 23 29 20
internal_value=2.49151e-05 0.0388847 0.053272 -0.00451733 -0.0247193 0.0663902 0.00680835 -0.0311905 -0.00628019 -0.0385326 -0.0430957 0.0767992 -0.0296764 0.0839165 -0.0469842 0.0863831 -0.0479078 -0.0478047 -0.0476935 -0.0478847 -0.047437
internal_weight=170.627 66.38 49.8539 16.5261 104.247 39.1153 17.7532 86.4939 19.6901 66.8038 60.1737 32.0086 12.985 24.2063 53.6093 17.057 47.261 39.5453 31.5464 18.0768 13.4696
internal_count=516 193 143 50 323 111 54 269 60 209 189 90 40 68 169 48 149 125 100 57 43
is_linear=0
shrinkage=0.05


Tree=8
num_leaves=21
num_cat=0
split_feature=0 101 8 117 361 182 340 212 14 206 96 91 7 149 248 138 13 205 275 30
split_gain=50.1473 25.3094 23.3879 21.2948 11.6289 7.84291 7.20974 6.13945 4.28173 7.9048 2.32772 1.28421 0.552175 0.105521 0.00158518 0.000482105 0.000275 0.000128686 9.42321e-05 8.11218e-05
threshold=0.49912526908119642 0.6414705215714106 -0.69759489049619072 -0.73747338471089063 -0.49069130273677281 0.21974627137545075 -0.20040327059138671 -0.54121446462057032 -0.53225289018196931 -0.38643619491567427 -0.42845074541784478 -0.37839798016987569 0.89193868303158619 -0.12564755683186138 -0.72899160705007471 0.45409262790934574 1.1814663050301208 -0.63244790635557158 0.031996714146363424 -0.96567146988299757
decision_type=2 2 2 2 2 2 2 2 2 2 2 2 2 2 2 2 2 2 2 2
left_child=1 2 7 -4 -3 10 -2 -1 9 -6 -5 -8 14 -12 -10 -9 17 -16 19 -19
right_child=6 4 3 5 8 -7 11 15 12 -11 13 -13 -14 -15 16 -17 -18 18 -20 -21
leaf_value=0.010157685463512858 0.016123391774858428 0.016711124210882125 -0.022581018884728927 0.049054065206382565 0.020748001644223413 0.012316293915918609 0.060252966974355428 -0.047178385258843367 -0.048143044495061536 -0.047495679429107346 0.088718595520757865 0.085402173890504723 -0.031707464674225472 0.080178527238605676 -0.047486359089305138 -0.047752873140053775 -0.047678874368508373 -0.04719532762756596 -0.047117739743238851 -0.047435097018069423
leaf_weight=6.6514860987663296 6.7430244386196163 11.131652683019636 11.586335569620131 6.9086072742939022 7.7255103588104275 7.1098004579544059 8.391013324260717 6.2179813683032981 8.2994667887687665 9.414151191711424 7.0347031354904193 12.849001348018641 6.2902760207653037 7.4451669752597809 8.1576826870441383 8.8491441905498487 6.3076873421668997 6.2226575314998582 8.0698073804378492 8.1453914344310885
leaf_count=20 20 33 36 20 23 21 24 20 26 30 20 36 20 21 26 28 20 20 26 26
internal_value=5.39257e-06 -0.0120841 0.0119333 0.0345739 -0.0306935 0.057811 0.0611669 -0.0298529 -0.0383821 -0.0167356 0.072934 0.0754668 -0.0455872 0.0843275 -0.0475187 -0.0475158 -0.0473783 -0.0473163 -0.0472545 -0.0473313
internal_weight=169.551 141.568 61.8032 40.0846 79.7643 28.4983 27.983 21.7186 68.6326 17.1397 21.3885 21.24 51.493 14.4799 45.2027 15.0671 36.9032 30.5955 22.4379 14.368
internal_count=516 436 186 118 250 82 80 68 217 53 61 60 164 41 144 48 118 98 72 46
is_linear=0
shrinkage=0.05


Tree=9
num_leaves=20
num_cat=0
split_feature=36 0 132 4 232 196 89 249 118 262 305 412 252 143 314 131 341 343 353
split_gain=51.4065 48.6963 20.6501 12.566 7.42619 6.03086 7.58962 4.81984 2.49618 2.10768 0.532262 0.13291 0.0306659 0.00360849 0.00263669 0.00112531 0.000928243 0.000804181 0.000349684
threshold=-0.44815115577332204 -0.044016066000914095 0.93674326618033354 0.92634347666241823 1.4556248378596801 -0.27360513078373611 0.46261590091245924 -0.8850903223745501 -0.87103332301605241 0.6208929397100913 0.53547973259420989 0.28119506799497618 -0.079497684846485187 -0.10667682666581541 -0.10363553515339588 0.55662251150942843 -0.46342260886616798 -0.7076982293244346 0.5127137458097667
decision_type=2 2 2 2 2 2 2 2 2 2 2 2 2 2 2 2 2 2 2
left_child=4 2 5 7 8 6 -2 -3 -1 12 15 13 -7 -9 -14 16 -10 -18 -19
right_child=1 3 -4 -5 -6 9 -8 11 10 -11 -12 -13 14 -15 -16 -17 17 18 -20
leaf_value=-0.011653844638570755 -0.0031920073451125186 0.0019028258652018697 -0.024807881865305356 0.02390909729161908 0.01033348550240837 0.080405068401693702 0.064986691841219746 -0.047606260730650558 -0.046665150538646082 0.048501733326025927 -0.034926375855633213 -0.039767325464513781 0.076581087380482388 -0.049030540347161977 0.077875292864309748 -0.046582088046110054 -0.047732075487696535 -0.046906707192707724 -0.047382785501623496
leaf_weight=6.5910241305828086 6.9845997989177731 6.6717178523540523 7.9645432233810416 12.320318877696989 8.1401813030242902 13.826174974441528 9.8220412135124189 10.374634265899664 6.4230768978595689 7.1855478882789603 11.685206443071364 6.2582171261310569 8.4797647297382337 7.7834593951702109 7.3435450196266183 9.7578299045562726 8.5198063254356367 8.3192856609821408 7.1911050081253043
leaf_count=20 20 20 24 36 24 38 27 33 21 20 37 20 23 24 20 32 27 27 23
internal_value=-5.80136e-05 0.0217376 0.050318 -0.0188244 -0.0344111 0.0614724 0.0366526 -0.0357598 -0.0406385 0.0727969 -0.0443197 -0.0460511 0.0786848 -0.0482168 0.0771817 -0.0470494 -0.0471991 -0.0473418 -0.0471274
internal_weight=171.642 105.015 61.6062 43.4083 66.6275 53.6417 16.8066 31.088 58.4873 36.835 51.8963 24.4163 29.6495 18.1581 15.8233 40.2111 30.4533 24.0302 15.5104
internal_count=516 305 172 133 211 148 47 97 187 101 167 77 81 57 43 130 98 77 50
is_linear=0
shrinkage=0.05


Tree=10
num_leaves=19
num_cat=0
split_feature=36 88 248 88 30 36 149 145 108 7 120 202 0 98 299 88 276 390
split_gain=59.2498 14.6586 11.0358 9.05721 8.13736 11.911 9.56116 8.39364 8.07413 7.13512 3.13232 1.49701 0.065893 0.00510228 0.00159179 0.00113818 0.000335593 0.000208527
threshold=-0.69255654379372833 -0.59779532865177565 -0.7190455451806439 1.6584779416745541 -1.224097145825813 1.6085451753627338 -0.5664790297665091 1.0000000180025095e-35 -1.0000000180025095e-35 0.81117909164316904 -0.2418014398183225 -0.66344176227304208 0.11708053274314451 1.1492682932408647 -0.096285669555959727 -0.13212701578269498 0.81437192607905817 0.22389736649212721
decision_type=2 2 2 2 2 2 2 2 2 2 2 2 2 2 2 2 2 2
left_child=1 2 -1 -3 6 13 -2 10 -8 11 -7 -4 -13 14 -6 -16 17 -17
right_child=4 3 9 -5 5 7 8 -9 -10 -11 -12 12 -14 -15 15 16 -18 -19
leaf_value=0.0050219610983991188 0.050561187470009719 -0.046985743223784127 0.055644684339685939 0.0279245559824997 -0.047463482616472624 -0.04705680609178492 0.019569870497002293 0.031464983308401855 -0.0435833316324696 0.028578604652454029 -0.0036627058147019422 0.080024098094431464 0.085851994974160087 -0.048410470940262358 -0.047184507800863425 -0.046182328786091562 -0.046815252594923557 -0.046592026678417588
leaf_weight=10.779799520969389 6.8471328914165523 7.1026004552841195 7.1634162068366996 9.3428813219070435 11.266303330659865 8.9675633907318133 8.616632312536245 9.7350883483886701 12.265312671661372 11.379212439060209 7.7547347247600582 13.847031265497213 7.4648360013961783 7.0667307972908011 10.566399544477461 6.3201661407947594 7.0645701289176932 6.1067552864551544
leaf_count=32 20 23 20 27 36 29 26 29 39 32 24 38 21 22 34 21 23 20
internal_value=4.55423e-05 0.0365846 0.0499051 -0.00442828 -0.0238489 -0.0324205 -0.000711803 -0.0054455 -0.0175241 0.0620451 -0.0269334 0.0754189 0.0820654 -0.0471689 -0.0469566 -0.0467666 -0.0465401 -0.0463837
internal_weight=169.657 67.0798 50.6343 16.4455 102.577 74.8483 27.7291 26.4574 20.8819 39.8545 16.7223 28.4753 21.3119 48.3909 41.3242 30.0579 19.4915 12.4269
internal_count=516 193 143 50 323 238 85 82 65 111 53 79 59 156 134 98 64 41
is_linear=0
shrinkage=0.05


Tree=11
num_leaves=21
num_cat=0
split_feature=0 101 8 117 361 9 340 212 14 206 139 284 336 216 248 138 389 113 334 19
split_gain=44.9169 23.6085 21.3531 18.7973 10.8398 7.09646 6.33692 5.79342 4.11691 7.39833 1.82262 1.21781 0.565279 0.166601 0.00251087 0.000844121 0.000539758 0.000324015 0.000220028 0.000180179
threshold=0.49912526908119642 0.6414705215714106 -0.69759489049619072 -0.73747338471089063 -0.49069130273677281 0.69346898463066931 -0.20040327059138671 -0.54121446462057032 -0.53225289018196931 -0.38643619491567427 0.56583916760652142 -0.10231733185296089 -1.1988697960638388 -0.66273230132859251 -0.72899160705007471 0.45409262790934574 0.30009834652877126 -0.350757917929087 -0.3601081823091139 0.31489384040646134
decision_type=2 2 2 2 2 2 2 2 2 2 2 2 2 2 2 2 2 2 2 2
left_child=1 2 7 -4 -3 10 -2 -1 9 -6 -5 13 -10 -8 -14 -9 17 -16 -19 -20
right_child=6 4 3 5 8 -7 11 15 12 -11 -12 -13 14 -15 16 -17 -18 18 19 -21
leaf_value=0.0096051659012069343 0.015111144498311014 0.01561713656984437 -0.021536480297050579 0.083495781545958034 0.019663506199444826 0.019366876656086232 0.073499165575223041 -0.046133823234925105 -0.030444923968322414 -0.046619911198581332 0.051598473193122267 0.053712579922715921 -0.047446039243324155 0.084238235909336323 -0.046705750811785483 -0.046905609704502658 -0.046886839989270117 -0.04605251851872507 -0.046560097540478053 -0.046231430908618511
leaf_weight=6.6792770028114345 6.7974552214145687 11.225547969341276 11.394756555557249 12.217866629362112 7.7878206670284298 9.6955529451370221 7.2793511152267492 6.0104419589042655 6.1287870407104483 9.1630541980266553 7.0699425637722006 7.2488693296909306 8.1355650722980482 7.1673969626426697 6.1246834099292711 8.6293817758560163 6.4625900685787192 6.5944310128688803 8.2351778745651369 8.4474037587642652
leaf_count=20 20 33 36 34 23 28 20 20 20 30 20 20 26 20 20 28 21 22 27 28
internal_value=1.32409e-05 -0.0116329 0.0114983 0.032872 -0.0298582 0.0542626 0.0572373 -0.0289832 -0.0374684 -0.016167 0.0718038 0.0704359 -0.0446714 0.0788271 -0.046653 -0.0465887 -0.0464731 -0.0463822 -0.046297 -0.0463937
internal_weight=168.495 140.002 61.6972 40.3781 78.3051 28.9834 28.4931 21.3191 67.0795 16.9509 19.2878 21.6956 50.1286 14.4467 43.9999 14.6398 35.8643 29.4017 23.277 16.6826
internal_count=516 436 186 118 250 82 80 68 217 53 54 60 164 40 144 48 118 97 77 55
is_linear=0
shrinkage=0.05


Tree=12
num_leaves=21
num_cat=0
split_feature=36 0 203 105 217 232 358 388 14 230 205 251 255 152 215 248 305 102 188 202
split_gain=46.6663 43.8413 18.5483 12.0572 14.3043 7.04932 6.51343 3.20296 2.94585 2.3967 5.44816 0.404805 0.0362462 0.0218153 0.00712761 0.00628429 0.00182165 0.00144616 0.00110016 0.000497427
threshold=-0.44815115577332204 -0.044016066000914095 0.95782301266305603 0.016780728859452625 0.31062699410746469 1.4556248378596801 0.69202714010252908 -0.22913182436492113 -0.45816213372199149 -0.4761020688047935 -0.27839543597661043 0.45440852079169752 -0.28038592683972935 -0.57303668298981958 -0.54176644791166939 -0.64972498988928029 0.71522636606408085 -0.23773759438006833 -0.16023648594038284 -0.48149493611480249
decision_type=2 2 2 2 2 2 2 2 2 2 2 2 2 2 2 2 2 2 2 2
left_child=5 2 6 7 -5 9 8 -3 -2 10 -1 12 -10 -14 -9 -11 18 -16 -17 -20
right_child=1 3 -4 4 -6 -7 -8 14 11 15 -12 -13 13 -15 17 16 -18 -19 19 -21
leaf_value=-0.046191823139840799 0.037387693802646831 -0.0093763869465821412 -0.021720117847234013 0.060109350461476689 -0.039446665050307299 0.010122787167034714 0.021381955824569251 -0.049057342497784109 0.077824583125367386 -0.047905224140810138 0.011162055472438766 0.062339858086986361 0.075877870404972569 0.072537355918435603 -0.046473294483364097 -0.045631039872920824 -0.046934940372101025 -0.047492643995353079 -0.046628519226457887 -0.046043614254562992
leaf_weight=10.812737911939623 7.2979650795459738 7.4096379876136806 8.4048517346382123 8.5650777220725995 6.2342332005500785 8.1453114151954633 9.8376483321189863 6.4847886264324215 8.0683045089244789 6.3049860000610343 6.7102037072181693 8.1337254941463453 8.1140975356101954 12.289942622184764 6.0754901468753841 11.495121568441389 6.4723098874092093 8.1429345309734291 6.1058522462844804 8.9823486804962211
leaf_count=36 20 23 25 24 20 24 28 20 22 20 21 22 22 33 20 39 21 26 20 30
internal_value=-9.2479e-05 0.0205125 0.0473522 -0.0183575 0.0181712 -0.0333813 0.0581547 -0.0375871 0.0663944 -0.0396108 -0.0242288 0.0721773 0.0749876 0.0738658 -0.0476836 -0.0464586 -0.0461827 -0.0470571 -0.0459996 -0.0462803
internal_weight=170.088 105.059 62.1465 42.9122 14.7993 65.0289 53.7417 28.1129 43.904 56.8836 17.5229 36.6061 28.4723 20.404 20.7032 39.3606 33.0556 14.2184 26.5833 15.0882
internal_count=516 305 172 133 44 211 147 89 119 187 57 99 77 55 66 130 110 46 89 50
is_linear=0
shrinkage=0.05


Tree=13
num_leaves=20
num_cat=0
split_feature=36 9 118 336 412 270 29 386 315 137 178 192 230 30 143 36 360 85 108
split_gain=53.6543 13.2605 10.9877 9.4015 7.87003 6.96343 5.93493 5.49526 5.85374 4.60928 4.34959 0.922379 0.758517 0.00419935 0.00341455 0.00255353 0.0014445 0.00126891 0.000560683
threshold=-0.69255654379372833 0.69346898463066931 -0.61423999964760034 0.16314746039981959 0.41435015175049383 0.17998255268230459 -1.9792970280535522 -0.23192668058974492 -0.32556727562617577 0.83053445182423091 -1.0912388091444305 -0.28041921414848842 -0.53211452788868352 -1.224097145825813 -0.25501874836257393 1.6085451753627338 -0.056248623406109928 0.51379897481361425 -0.36137725932142956
decision_type=2 2 2 2 2 2 2 2 2 2 2 2 2 2 2 2 2 2 2
left_child=1 2 -1 -4 6 -6 -2 8 -3 10 -8 -9 -12 -14 17 16 -16 18 -15
right_child=4 7 3 -5 5 -7 9 11 -10 -11 12 -13 13 14 15 -17 -18 -19 -20
leaf_value=-0.034541658788459467 0.0072774309905976583 0.066680415029541182 0.06975024409106266 0.00064494326485835588 -0.017075033342878083 0.047887070657979987 -0.0043941458352062352 0.057105367109570787 0.0076336751528963314 -0.0015613901695023327 -0.031056644233566934 0.079144836438128793 -0.047788141985733112 -0.045247287429276355 -0.045862321957675978 -0.047668508085532003 -0.046849592449484181 -0.046487584370876862 -0.045921843837023857
leaf_weight=9.5851906538009661 9.7149308323860151 7.3888212740421322 8.6743683815002459 11.376561015844343 10.963809758424761 6.6135652363300315 7.91839975118637 7.3254845142364529 9.7179538011550886 9.3777527809143049 9.4540327787399274 13.488691836595534 6.2727715969085613 5.8084310591220865 5.9444010257720885 6.2985340058803549 9.834666192531607 6.0726590156555167 6.5591153800487456
leaf_count=29 30 21 24 34 34 20 25 20 28 29 31 37 20 20 20 20 32 20 22
internal_value=6.82333e-05 0.0345493 0.0094914 0.0305411 -0.0230337 0.00736725 -0.0294521 0.0541326 0.0331374 -0.0343041 -0.0390897 0.0713881 -0.0439743 -0.0465843 -0.0463979 -0.0468174 -0.0464777 -0.0458957 -0.045605
internal_weight=168.39 67.5571 29.6361 20.0509 100.833 17.5774 83.2557 37.921 17.1068 73.5408 64.163 20.8142 56.2446 46.7906 40.5178 22.0776 15.7791 18.4402 12.3675
internal_count=516 193 87 58 323 54 269 106 49 239 210 57 185 154 134 72 52 62 42
is_linear=0
shrinkage=0.05


Tree=14
num_leaves=21
num_cat=0
split_feature=0 101 8 117 361 182 219 340 401 208 88 91 307 199 206 67 138 0 269 340
split_gain=40.4611 22.0046 19.3464 16.8103 10.1404 6.48638 5.56012 5.51834 4.0715 2.41678 1.9307 1.13074 0.164545 0.0108189 0.00212081 0.000875296 0.000857023 0.000473497 0.000278247 0.000117166
threshold=0.49912526908119642 0.6414705215714106 -0.69759489049619072 -0.73747338471089063 -0.49069130273677281 0.21974627137545075 -0.51759223187018921 -0.20040327059138671 0.95739030061051278 -0.82595176866507358 -0.57406957740372511 -0.37839798016987569 1.0280876253929112 -0.31891775208525791 -0.52281858281361393 -0.45896466161448352 0.45409262790934574 -0.14874475135354551 -0.46844833054098545 -0.19563045478059987
decision_type=2 2 2 2 2 2 2 2 2 2 2 2 2 2 2 2 2 2 2 2
left_child=1 2 6 -4 -3 10 -1 -2 9 -6 -5 -9 13 -11 -15 -16 -8 18 -17 -20
right_child=7 4 3 5 8 -7 16 11 -10 12 -12 -13 -14 14 15 17 -18 -19 19 -21
leaf_value=0.0096036507731547451 0.014589112345897316 0.014682242773013963 -0.020788911898187216 0.047115356169667166 -0.014712736529387463 0.0099363576915055124 -0.045289948256234586 0.052041612002723815 -0.0025901232404282291 -0.047987775926539383 0.077038792051476943 0.075206289268846371 -0.037290492149952587 -0.04669119324863797 -0.046154258278114063 -0.045661305093327373 -0.046074516848131304 -0.04591293809779478 -0.045410567117433215 -0.045093229021158171
leaf_weight=6.6710999011993435 6.8244948089122799 11.300244331359862 11.24984550476074 9.2740802168846148 7.5069006979465476 7.2202685475349417 6.1088529527187339 8.7149785757064873 7.7554374039173117 6.9306025207042614 12.87279921770096 13.319333374500269 5.908346861600875 6.0843729078769604 7.2124793827533678 6.5023925900459298 8.090679317712782 5.9628235399723293 5.8557666540145874 5.779516726732254
leaf_count=20 20 33 36 26 24 21 21 24 25 22 35 36 20 20 24 22 27 20 20 20
internal_value=2.53655e-05 -0.0112127 0.0110779 0.0311822 -0.0290592 0.0510911 -0.0280479 0.0538762 -0.0366057 -0.0411744 0.0645083 0.0660442 -0.0451286 -0.0461733 -0.045837 -0.045671 -0.045737 -0.0455264 -0.0453993 -0.0452529
internal_weight=167.145 138.287 61.4876 40.617 76.7989 29.3671 20.8706 28.8588 65.4986 57.7432 22.1469 22.0343 50.2363 44.328 37.3974 31.313 14.1995 24.1005 18.1377 11.6353
internal_count=516 436 186 118 250 82 68 80 217 192 61 60 168 148 126 106 48 82 62 40
is_linear=0
shrinkage=0.05


Tree=15
num_leaves=21
num_cat=0
split_feature=36 0 132 105 217 232 37 255 388 230 225 165 188 196 248 215 95 385 14 380
split_gain=42.4728 39.4111 17.0646 11.211 12.9175 6.66993 5.1286 4.79435 3.11187 2.35694 5.16377 0.430747 0.0542348 0.00828805 0.00665333 0.0062438 0.00216122 0.00149527 0.000863494 0.000518631
threshold=-0.44815115577332204 -0.044016066000914095 0.93674326618033354 0.016780728859452625 0.31062699410746469 1.4556248378596801 1.1193604715041086 -0.36584446705024526 -0.22913182436492113 -0.4761020688047935 0.29952936792217161 -0.3401980520654449 -0.29145818250120964 -0.17083521915662311 -0.64972498988928029 -0.54176644791166939 -0.77707531500817983 -0.30217176913192928 0.32003517859015329 -0.48178157299380264
decision_type=2 2 2 2 2 2 2 2 2 2 2 2 2 2 2 2 2 2 2 2
left_child=5 2 6 8 -5 9 7 -2 -3 10 -1 -9 -13 -14 -11 -10 -17 -16 19 -19
right_child=1 3 -4 4 -6 -7 -8 11 15 14 -12 12 13 -15 17 16 -18 18 -20 -21
leaf_value=0.010897883302667936 0.02721773451274874 -0.0088714072339574745 -0.024187664701077929 0.05648771937363542 -0.038534219792609542 0.0097762757131844916 0.01615140606171982 0.057459543202077336 -0.048168331156669623 -0.047089760653162303 -0.045278356029193639 0.073655850494461703 0.068365550985912293 0.070418962694801177 -0.044806118815506869 -0.045635540106841926 -0.046885416737535664 -0.045581628789701609 -0.045943005553489027 -0.044958184227907649
leaf_weight=6.7253677845001247 8.7310180068016034 7.3518979549407986 7.8733054101467124 8.670459717512129 6.0878827869892111 8.1581881344318372 7.502066195011138 7.4356988966464952 6.3360828161239651 6.1468017995357505 10.442340552806852 11.1235975921154 10.866022825241087 8.9711982011795133 10.54379218816757 6.7789735198020953 7.0613499879837001 7.0693381726741782 8.0402730107307416 6.3163150846958223
leaf_count=21 24 23 24 24 20 24 21 20 20 20 36 30 29 24 37 23 23 24 27 22
internal_value=-0.000138895 0.0194091 0.0446306 -0.0178703 0.0172907 -0.0324268 0.0545488 0.0606612 -0.0367206 -0.0386547 -0.0232716 0.0682659 0.0708612 0.0692942 -0.0455832 -0.0468684 -0.0462732 -0.0452936 -0.0455334 -0.0452874
internal_weight=168.232 104.79 62.5029 42.2866 14.7583 63.4424 54.6296 47.1275 27.5283 55.2842 17.1677 38.3965 30.9608 19.8372 38.1165 20.1764 13.8403 31.9697 21.4259 13.3857
internal_count=516 305 172 133 44 211 148 127 89 187 57 103 83 53 130 66 46 110 73 46
is_linear=0
shrinkage=0.05


Tree=16
num_leaves=20
num_cat=0
split_feature=36 88 248 88 67 69 361 7 98 231 305 202 45 224 15 320 340 2 275
split_gain=48.4817 12.0728 9.18592 7.90326 7.59036 8.77572 8.9726 6.05922 5.34701 4.2066 2.0337 1.26334 0.0746832 0.00342209 0.00278718 0.00192011 0.00165776 0.00122912 0.000749223
threshold=-0.69255654379372833 -0.59779532865177565 -0.7190455451806439 1.6584779416745541 -1.1823064938949404 1.165371773116249 -0.37806631328838824 0.81117909164316904 1.278633518935125 -0.29094559944185722 -0.87676114669114968 -0.66344176227304208 0.63374047098032349 0.48149020950257521 0.59171260919588031 0.30959033864019853 -0.18526664300461226 -0.083894619996198058 -0.045690058720144304
decision_type=2 2 2 2 2 2 2 2 2 2 2 2 2 2 2 2 2 2 2
left_child=1 2 -1 -3 -2 8 9 11 10 -7 -6 -4 -13 14 15 18 -16 -17 -12
right_child=4 3 7 -5 5 6 -8 -9 -10 -11 13 12 -14 -15 16 17 -18 -19 -20
leaf_value=0.0037116387618902967 0.024616055473426157 -0.045866105812538117 0.049549457754584893 0.024653585165285388 -0.01514609782087931 -0.04699814343632544 0.033318958687156994 0.024746341945118794 -0.0013574479292342095 0.0054542955035733094 -0.045040415142866087 0.071417658898235314 0.077538145412618512 -0.046569320777336699 -0.046597261125201142 -0.046053631483314927 -0.045523482890118781 -0.045055025659808012 -0.044310656092155398
leaf_weight=10.888071954250334 7.9613950550556174 6.8268292248249063 7.3018203377723685 9.5044281184673309 6.175897240638732 9.5143600702285749 10.684663355350493 11.536818772554396 9.3835942447185499 6.389407932758334 7.7827846407890258 14.161189317703252 7.6911016404628745 7.5863308310508719 6.0755034387111655 6.2779498100280762 8.8019140064716321 6.0517459809780103 6.417190819978722
leaf_count=32 24 23 20 27 20 31 32 32 29 20 27 38 21 25 20 21 30 21 23
internal_value=9.73167e-05 0.0326404 0.044503 -0.00482522 -0.0222029 -0.0262926 -0.00211768 0.055418 -0.0362499 -0.0259251 -0.0421847 0.0675553 0.0735718 -0.0455931 -0.0454142 -0.045107 -0.045962 -0.0455635 -0.0447106
internal_weight=167.013 67.9103 51.579 16.3313 99.1027 91.1413 26.5884 40.6909 64.5529 15.9038 55.1693 29.1541 21.8523 48.9934 41.4071 26.5297 14.8774 12.3297 14.2
internal_count=516 193 143 50 323 299 83 111 216 51 187 79 59 167 142 92 50 42 50
is_linear=0
shrinkage=0.05


Tree=17
num_leaves=21
num_cat=0
split_feature=0 101 107 9 401 374 361 297 340 14 206 284 6 184 208 296 248 155 187 345
split_gain=36.676 20.4485 17.7411 13.6624 10.6298 12.2414 9.41327 7.43228 5.05808 4.02277 6.89378 1.08241 0.582592 0.573515 0.445091 0.1637 0.0054215 0.00123318 0.00106331 0.000469323
threshold=0.49912526908119642 0.6414705215714106 -0.84735947857283922 0.69346898463066931 0.13984267726381253 -0.26568568890205868 -0.49069130273677281 -0.1609706299253289 -0.20040327059138671 -0.53225289018196931 -0.38643619491567427 -0.10231733185296089 0.90349742567096236 0.41006417765816722 -0.17759618372968508 0.35113496481344264 -0.72899160705007471 0.23993399824250286 -0.68050057287468935 -0.19716849509235371
decision_type=2 2 2 2 2 2 2 2 2 2 2 2 2 2 2 2 2 2 2 2
left_child=1 2 14 7 -5 -6 -3 13 -2 10 -8 15 16 -4 -1 -10 -11 18 -18 -20
right_child=8 6 3 4 5 -7 9 -9 11 12 -12 -13 -14 -15 -16 -17 17 -19 19 -21
leaf_value=-0.047842662777299899 0.013529634670404836 0.01360919161984234 0.081636507041816769 -0.047769076637944385 -0.026116107102584021 0.067846196260112165 0.019793908989259975 0.016843527695774598 0.075664176968819913 -0.04634387081958808 -0.045087301666310635 0.046971847661899234 -0.028320291704517803 0.062200480255500672 -0.029683769382066561 0.065157347376310959 -0.045290132932323091 -0.0453636866105167 -0.044168077414527836 -0.044706326905275671
leaf_weight=7.4795728027820587 6.8796909749507931 11.387551873922346 7.9036063551902753 8.4198380410671252 6.5756606161594391 7.3304611742496473 7.7670625746250179 10.023085951805117 7.3766906559467351 8.1453386247158033 8.6576705574989301 7.4006486237049076 5.8374254405498496 7.302214503288269 6.148456931114195 7.4524303078651428 5.817819237709041 10.212519079446791 6.3813754022121421 11.084831476211557
leaf_count=24 20 33 22 27 21 21 23 30 20 27 30 20 20 20 21 20 20 35 23 39
internal_value=4.29597e-05 -0.0108249 0.0106452 0.0250585 -0.00343074 0.0234151 -0.0282717 0.0502696 0.0509949 -0.0357348 -0.0144057 0.0625897 -0.0431132 0.0723028 -0.03965 0.0703839 -0.0451869 -0.0449056 -0.0447047 -0.0445097
internal_weight=165.584 136.474 61.1829 47.5549 22.326 13.9061 75.2916 25.2289 29.1095 63.904 16.4247 22.2298 47.4793 15.2058 13.628 14.8291 41.6419 33.4965 23.284 17.4662
internal_count=516 436 186 141 69 42 250 72 80 217 53 60 164 42 45 40 144 117 82 62
is_linear=0
shrinkage=0.05


Tree=18
num_leaves=20
num_cat=0
split_feature=36 0 203 111 323 232 358 14 63 115 33 251 255 359 248 141 385 101 166
split_gain=38.653 35.5743 15.8789 10.5244 13.6108 6.39459 5.46853 2.58862 2.34882 0.571951 0.480589 0.386043 0.052496 0.0188415 0.0166701 0.00565138 0.00148895 0.0011154 0.000396845
threshold=-0.44815115577332204 -0.044016066000914095 0.95782301266305603 0.5452899101256522 -0.17874110577741323 1.4556248378596801 0.69202714010252908 -0.45816213372199149 -0.87815753207585734 -0.80132427079202861 0.32446505430610389 0.45440852079169752 -0.28038592683972935 -0.36363030606687241 -0.72899160705007471 -0.19657283608190096 0.21695829709289075 0.57351205602755451 -0.43581179186591557
decision_type=2 2 2 2 2 2 2 2 2 2 2 2 2 2 2 2 2 2 2
left_child=5 2 6 10 -5 8 7 -2 -1 -10 15 12 -9 -14 -11 -3 17 -16 -19
right_child=1 3 -4 4 -6 -7 -8 11 9 14 -12 -13 13 -15 16 -17 -18 18 -20
leaf_value=-0.01583307358794064 0.032533030107202994 -0.045566521616333004 -0.021975999633827122 -0.036373186607703223 0.046164614019391495 0.0097804750107345073 0.018514226087526894 0.071103478396657371 -0.028101678664456849 -0.047362422959493326 -0.029605712771039627 0.05542292258770723 0.068092687942882063 0.065041778426267738 -0.043832970697959238 -0.047496995992432248 -0.044997249964334324 -0.044278184977709294 -0.044844423918589005
leaf_weight=9.9442275166511518 7.3660694062709799 9.082807868719101 8.3485238552093488 9.1790934801101702 10.957127213478087 8.1441670060157758 9.9085523784160596 8.1956610977649635 5.779424160718917 6.1787237226962999 5.8881013095378867 8.2023459970951063 8.9708312451839429 11.609629541635522 8.4410856962204051 6.5071629583835611 10.912547767162321 5.8465192317962611 6.5731608569622075
leaf_count=34 20 31 25 30 31 24 28 22 20 20 20 22 24 31 31 21 38 21 23
internal_value=-0.000180118 0.0184004 0.0422181 -0.0174292 0.00853977 -0.0315031 0.0520963 0.0596001 -0.0377671 -0.0427547 -0.0417758 0.0649918 0.0677193 0.0663716 -0.0449861 -0.0463723 -0.044524 -0.0442765 -0.0445779
internal_weight=166.036 104.216 62.6016 41.6143 20.1362 61.8199 54.2531 44.3445 53.6757 43.7315 21.4781 36.9785 28.7761 20.5805 37.952 15.59 31.7733 20.8608 12.4197
internal_count=516 305 172 133 61 211 147 119 187 153 72 99 77 55 133 52 113 75 44
is_linear=0
shrinkage=0.05


Tree=19
num_leaves=20
num_cat=0
split_feature=36 9 118 336 36 200 137 184 29 329 63 217 309 252 189 250 331 393 316
split_gain=43.8922 10.9541 9.75353 7.80993 7.46347 8.7652 9.27916 4.87027 4.7402 3.37501 2.99668 1.39127 0.795947 0.0075717 0.00410725 0.00339727 0.00254207 0.000774685 0.000567859
threshold=-0.69255654379372833 0.69346898463066931 -0.61423999964760034 0.16314746039981959 0.43468146503943267 -0.32081558336679666 0.78828705456476167 1.0145654407981912 0.45588775466070369 0.38485660890677448 -0.078453971263327468 0.88590321949535966 -0.43810113339358914 -0.54933912253398953 -0.29905143203998458 0.22444377017431313 0.10366757302417329 -0.41375565690756183 -0.13679499936741779
decision_type=2 2 2 2 2 2 2 2 2 2 2 2 2 2 2 2 2 2 2
left_child=1 2 -1 -4 13 -6 7 9 -3 11 -10 14 -12 -2 -7 17 -15 -16 -19
right_child=4 8 3 -5 5 6 -8 -9 10 -11 12 -13 -14 16 15 -17 -18 18 -20
leaf_value=-0.033915038641442352 -0.046383006056754612 0.015303623146226989 0.062920847083962367 0.00016200463789211304 0.033067381751232673 -0.046258712519825579 0.0220909117665242 0.012143888942796379 0.029711593501358092 -0.0044777565044062011 0.054545671178331256 -0.021437226306545397 0.073860676798950448 -0.043932385351526326 -0.044873022237470035 -0.045724395829273567 -0.045225801044751011 -0.044520808590901406 -0.043813472120753393
leaf_weight=9.4256545603275317 9.336225092411043 8.3851540982723218 8.8371402621269244 11.290806293487547 8.9158420264720899 5.9824156463146165 10.926862448453901 6.4639510512351981 7.2084541022777548 7.9316591918468466 8.4849815666675585 7.8004503548145285 14.361756145954134 7.6601234972476941 6.2900226414203653 7.0764571726322165 7.536250501871109 5.9143333733081818 5.454101741313945
leaf_count=29 31 24 24 34 27 20 33 20 20 25 23 26 39 28 22 24 26 21 20
internal_value=0.000127169 0.0309481 0.00805987 0.0277162 -0.0214132 -0.0133716 -0.0198572 -0.0285196 0.048545 -0.0341784 0.0578191 -0.0402944 0.0666873 -0.0452623 -0.0450831 -0.0447987 -0.0445738 -0.0444278 -0.0441815
internal_weight=165.283 67.9939 29.5536 20.1279 97.2887 72.7561 63.8403 52.9134 38.4403 46.4494 30.0552 38.5178 22.8467 24.5326 30.7173 24.7349 15.1964 17.6585 11.3684
internal_count=516 193 87 58 323 238 211 178 106 158 82 133 62 85 107 87 54 63 41
is_linear=0
shrinkage=0.05


Tree=20
num_leaves=21
num_cat=0
split_feature=0 44 284 264 397 203 33 116 349 22 387 117 248 5 244 268 0 390 260 341
split_gain=33.2127 19.2696 14.7347 13.5595 11.9226 9.04879 13.55 6.65651 6.32764 4.62817 1.31307 1.15516 0.869565 0.726011 0.418724 0.0472243 0.00322194 0.00193296 0.00108822 0.000520523
threshold=0.49912526908119642 -0.68478542613191384 -0.044860893505896164 -1.1759126807054254 0.53864579041707727 0.10533247987454039 -0.13145589452414749 -0.53920797079669147 1.0008538172426451 -0.91161893742084665 -0.40881802213378299 -0.0065880190829787815 0.4830810804785603 0.40751536468226662 -0.24818569910009067 0.71291042369569302 -0.18766323658084497 0.3167237412921729 0.61125964757421425 -0.20829238806692624
decision_type=2 2 2 2 2 2 2 2 2 2 2 2 2 2 2 2 2 2 2 2
left_child=1 7 3 -3 5 10 -7 -1 12 -2 -5 -11 13 15 -4 16 18 -18 19 -9
right_child=9 2 14 4 -6 6 -8 8 -10 11 -12 -13 -14 -15 -16 -17 17 -19 -20 -21
leaf_value=0.0079992087570813723 0.020923048922911094 -0.047031487440096817 -0.04736839041785082 0.082653316968853072 -0.026730375459253997 -0.030504696909561414 0.052410696489684827 -0.043582732036534101 0.014147038855291972 0.072425075665342273 0.054186734915295055 0.047172048801132523 -0.022300602217440534 -0.028564806360921999 -0.029119098940579721 -0.049125996844570953 -0.045610928008217339 -0.044376017181667303 -0.044608014611254639 -0.044194420328307976
leaf_weight=10.654769301414488 10.089991360902788 6.3364935815334311 6.7521829903125763 9.3339504003524798 7.4307721257209769 7.9716465771198264 12.90221890807152 8.626462697982781 5.9305263161659232 11.83222469687462 7.1571726500987998 7.3362796604633322 5.9962644279003134 7.8339511156082144 5.8808414936065656 6.436010777950286 7.3065263628959709 5.5955073833465576 6.5068813264369956 5.8273025453090677
leaf_count=35 28 21 22 26 25 26 36 32 18 32 20 20 20 26 20 20 25 20 23 21
internal_value=5.42767e-05 -0.0104495 0.00948197 0.0214288 0.0311128 0.042616 0.0207456 -0.0284224 -0.0348837 0.0483323 0.0702988 0.0627601 -0.0402556 -0.0424924 -0.0388731 -0.0451999 -0.0444537 -0.0450754 -0.0440711 -0.0438293
internal_weight=163.738 134.479 63.7653 51.1323 44.7958 37.365 20.8739 70.7142 60.0594 29.2585 16.4911 19.1685 54.1289 48.1326 12.633 40.2987 33.8627 12.902 20.9606 14.4538
internal_count=516 436 196 154 133 108 62 240 205 80 46 52 187 167 42 141 121 45 76 53
is_linear=0
shrinkage=0.05


Tree=21
num_leaves=21
num_cat=0
split_feature=36 0 133 111 2 37 232 255 222 230 225 184 231 181 278 248 121 385 14 118
split_gain=35.3385 32.1638 13.3052 7.15455 10.091 6.68472 6.06761 5.84229 2.66158 2.33495 4.90293 0.146023 0.138201 0.0742748 0.019277 0.00565324 0.00392853 0.00151131 0.000556847 0.000419068
threshold=-0.44815115577332204 0.03494620168467396 0.91520153728564668 0.5452899101256522 0.075691887575674813 1.1193604715041086 1.4556248378596801 -0.47880089817035215 -0.45941260534698097 -0.4761020688047935 0.29952936792217161 0.52703859742423476 0.84488107992617001 0.32134161050788851 -0.063401675979010544 -0.64972498988928029 -0.22910738150847246 -0.30217176913192928 0.32003517859015329 -0.47072942759702874
decision_type=2 2 2 2 2 2 2 2 2 2 2 2 2 2 2 2 2 2 2 2
left_child=6 2 5 12 -5 7 9 -2 -9 10 -1 13 16 14 -10 -11 -3 -17 19 -19
right_child=1 3 -4 4 -6 -7 -8 8 11 15 -12 -13 -14 -15 -16 17 -18 18 -20 -21
leaf_value=0.011804831429446466 0.010019919586773174 -0.044753765126835009 -0.020673665140201969 -0.034341165664771495 0.048101771261008695 0.004829372706518357 0.0094738188413023491 0.0310922276946029 0.065331797686464327 -0.04552048117649992 -0.043835998504797226 0.069570845031205752 -0.03617919325873261 0.058038397264538015 0.062294247555106652 -0.043306110798447102 -0.046477241498911449 -0.044120208620916306 -0.044402664971454134 -0.043539638887222121
leaf_weight=6.6506801247596767 7.1180403828620902 7.3709761798381797 8.7408240437507612 8.0893760621547681 6.858517885208129 8.7338249981403333 8.1504828035831434 7.2738494575023642 10.853386282920836 5.8031126707792273 9.7832838147878629 9.2952176332473737 5.614996373653411 7.388385444879531 10.068642050027853 9.8008798807859403 5.9961527287960079 6.9177140593528748 7.5505221784114829 5.6443551778793388
leaf_count=21 20 26 27 27 19 25 24 20 29 20 36 25 20 20 27 37 20 25 27 21
internal_value=-0.000224972 0.0175154 0.0370038 -0.0223873 0.00348599 0.0453051 -0.0306456 0.0521036 0.0587782 -0.0369157 -0.0213186 0.0641334 -0.0427618 0.0623481 0.06387 -0.0440923 -0.0455269 -0.0438152 -0.0440633 -0.0438593
internal_weight=163.703 103.402 69.4722 33.93 14.9479 60.7313 60.301 51.9975 44.8795 52.1505 16.434 37.6056 18.9821 28.3104 20.922 35.7166 13.3671 29.9135 20.1126 12.5621
internal_count=516 305 193 112 46 166 211 141 121 187 57 101 66 76 56 130 46 110 73 46
is_linear=0
shrinkage=0.05


Tree=22
num_leaves=21
num_cat=0
split_feature=36 328 0 36 68 200 132 88 45 136 275 354 196 390 182 201 252 228 331 130
split_gain=39.645 10.331 8.58637 7.21977 8.23451 7.4079 5.79143 5.4413 4.72608 4.44316 3.23609 1.99132 1.46655 1.26167 0.0829072 0.0136935 0.00671066 0.00311414 0.00218269 0.00115997
threshold=-0.69255654379372833 -0.8848889176029634 0.50643353722137296 0.43468146503943267 1.4451922225370677 -0.32068076901005133 -0.55901159101946296 -0.59779532865177565 -0.13333346459479031 0.83856287512300887 -0.78512413417061666 -0.95973865891572596 -0.28346404109427065 0.78735613044250807 -0.31679148194335771 -0.56658804157009668 -0.54933912253398953 0.41298383798424387 0.10366757302417329 -0.44914628355588021
decision_type=2 2 2 2 2 2 2 2 2 2 2 2 2 2 2 2 2 2 2 2
left_child=1 6 7 16 5 -5 -1 11 -6 10 -7 -3 -12 14 -13 -14 -2 19 -18 -17
right_child=3 2 -4 4 8 9 -8 -9 -10 -11 12 13 15 -15 -16 17 18 -19 -20 -21
leaf_value=0.027263480976878803 -0.045585103924722689 0.035003621989206403 -0.010223485188782504 0.027371102782895347 -0.0066044366040868656 -0.00097189834554047092 -0.033109327456614518 0.010169312520101214 0.052102670450699273 0.0071384931718082292 -0.020033343740921743 0.064964166045413094 -0.046702955308193232 0.04537823860470306 0.071478058178213275 -0.044237997522594649 -0.043249862539294248 -0.045085444566642333 -0.044468812785607076 -0.043398578656768147
leaf_weight=7.2594943046569851 9.0673703849315661 8.4677273333072645 7.2798563539981833 6.9754760563373557 7.0058111250400543 6.3805189728736869 8.7725358009338361 7.7280279695987693 6.7130465507507306 7.8096739053726187 7.6334722936153332 7.8362267911434182 6.356973141431804 7.7392005622386923 12.969808608293537 6.9329767823219326 7.3939559459686262 5.7469507157802573 7.2966271042823792 10.127465933561341
leaf_count=21 31 23 22 21 22 21 27 23 20 24 26 21 21 21 35 25 28 20 26 38
internal_value=0.000162653 0.0293206 0.0401356 -0.0206282 -0.0127111 -0.0209556 -0.0057718 0.0483295 0.0221227 -0.027567 -0.0338442 0.0562971 -0.0395441 0.0626137 0.0690247 -0.0446508 -0.0445155 -0.0440788 -0.0438553 -0.0437397
internal_weight=163.493 68.0529 52.0208 95.4403 71.6824 57.9635 16.032 44.741 13.7189 50.988 43.1784 37.013 36.7978 28.5452 20.806 29.1644 23.758 22.8074 14.6906 17.0604
internal_count=516 193 145 323 238 196 48 123 42 175 151 100 130 77 56 104 85 83 54 63
is_linear=0
shrinkage=0.05


Tree=23
num_leaves=21
num_cat=0
split_feature=0 44 284 264 397 203 131 116 349 340 373 91 248 5 244 268 0 390 260 341
split_gain=30.0306 17.9113 13.5878 12.5445 10.7729 8.18959 10.5172 6.38422 5.98569 4.40056 3.07035 1.05532 0.862463 0.71291 0.40772 0.0426452 0.00347108 0.00185043 0.00105714 0.00041478
threshold=0.49912526908119642 -0.68478542613191384 -0.044860893505896164 -1.1759126807054254 0.53864579041707727 0.44356141317156855 1.1443725119857191 -0.53920797079669147 1.0008538172426451 -0.20040327059138671 -0.65808990195468198 -0.37839798016987569 0.4830810804785603 0.40751536468226662 -0.24818569910009067 0.71291042369569302 -0.18766323658084497 0.3167237412921729 0.61125964757421425 -0.20829238806692624
decision_type=2 2 2 2 2 2 2 2 2 2 2 2 2 2 2 2 2 2 2 2
left_child=1 7 3 -3 5 10 -7 -1 12 -2 -5 -11 13 15 -4 16 18 -18 19 -9
right_child=9 2 14 4 -6 6 -8 8 -10 11 -12 -13 -14 -15 -16 -17 17 -19 -20 -21
leaf_value=0.0080005836713536935 0.011176647262152084 -0.046276471463044908 -0.04649148426610257 0.077837835855194382 -0.025872925829970028 -0.038691768856415787 0.049122798220787307 -0.042908876106070491 0.013432570598254158 0.043276782477783986 0.041732205421142816 0.065462487288579049 -0.02147272787691238 -0.027850937558429118 -0.028259184293941315 -0.048275214095853253 -0.044966220762464759 -0.043739826304763564 -0.043913715174402117 -0.043464988519021398
leaf_weight=10.627804070711134 6.9869520962238338 6.1722769886255255 6.5618743300437927 10.94057413935661 7.286100134253501 6.1554603874683362 7.6435242593288422 8.3136311769485403 5.9459013640880576 8.9034975171089226 12.750197082757953 13.468862533569331 5.8967560529708853 7.6911384612321845 5.7561583518981916 6.2928140461444846 7.1037132740020805 5.4244253635406494 6.2988683581352225 5.6193485558032998
leaf_count=35 20 21 22 30 25 21 21 32 18 24 36 36 20 26 20 20 25 20 23 21
internal_value=6.32479e-05 -0.010076 0.00915356 0.0205473 0.0297588 0.0405708 0.00995042 -0.027653 -0.0341207 0.0458155 0.0584061 0.0566333 -0.0394919 -0.0417651 -0.0379716 -0.0445053 -0.0437812 -0.0444352 -0.0433762 -0.0431332
internal_weight=161.84 132.481 63.2662 50.9481 44.7759 37.4898 13.799 69.2144 58.5866 29.3593 23.6908 22.3724 52.6407 46.7439 12.318 39.0528 32.76 12.5281 20.2318 13.933
internal_count=516 436 196 154 133 108 42 240 205 80 66 60 187 167 42 141 121 45 76 53
is_linear=0
shrinkage=0.05


Tree=24
num_leaves=22
num_cat=0
split_feature=36 0 203 401 108 249 358 260 14 198 310 62 251 255 221 151 393 167 116 20 14
split_gain=32.2761 29.1306 14.0151 10.1523 10.3249 5.90729 3.9877 2.80312 2.44755 2.27334 1.03279 1.4562 0.377281 0.0528708 0.0329841 0.0218131 0.00929731 0.00597733 0.00411234 0.000859678 0.00110406
threshold=-0.44815115577332204 -0.054632926566414046 0.95782301266305603 -0.033216403721570371 -0.3815582454821505 -0.94334874836084881 0.69202714010252908 -1.3474499687322046 -0.45816213372199149 0.651101577096867 -0.59374736242393611 -0.18098845299195029 0.45440852079169752 -0.28038592683972935 0.79874598501520278 -0.49272171214458743 -0.39382282763375803 -0.55676284776449114 -0.33514898746565974 0.64210239353415488 0.26878163603984989
decision_type=2 2 2 2 2 2 2 2 2 2 2 2 2 2 2 2 2 2 2 2 2
left_child=5 2 6 4 -3 -1 8 -7 -2 16 11 -9 13 -10 17 -15 -5 -12 -18 20 -19
right_child=1 3 -4 9 -6 7 -8 10 12 -11 14 -13 -14 15 -16 -17 18 19 -20 -21 -22
leaf_value=0.01307525233892361 0.027932340281794976 -0.037383568944803595 -0.022087075371873842 -0.046413601504948714 0.044954902880059114 -0.00267309673889762 0.018547300384936453 -0.043158832270556502 0.065649443696466234 -0.0092501566386035718 -0.044982400487049864 -0.0083040532426773266 0.050042148223955807 0.062867804749496992 -0.047589927744140274 0.059509813024694339 -0.043148363864465689 -0.0429655385360143 -0.045018174780085102 -0.042689544433490739 -0.043813175688709328
leaf_weight=7.060023605823516 7.3671638965606681 6.0452277958393124 8.2866181731224042 6.8810895979404494 10.284826993942259 5.7184406071901313 9.55137851834297 6.5615285336971283 8.2144707441329903 5.8593935370445243 5.6871940195560446 5.5156645327806455 8.1210331320762617 8.1903146505355799 6.1295044124126425 11.808990955352794 5.778493076562885 8.0584992319345528 5.9875598847866023 6.6550066620111457 7.3413497060537329
leaf_count=22 20 21 25 23 29 20 27 25 22 19 20 20 22 22 20 32 22 31 21 26 27
internal_value=-0.000275214 0.0166751 0.0384016 -0.0160664 0.014474 -0.0298239 0.0478141 -0.0356858 0.0542106 -0.0364171 -0.0397944 -0.0272406 0.0595387 0.0622722 -0.0442705 0.060885 -0.0449537 -0.0435371 -0.0440999 -0.0431644 -0.0433696
internal_weight=161.104 102.377 61.54 40.8366 16.3301 58.7272 53.2534 51.6672 43.702 24.5065 45.9487 12.0772 36.3348 28.2138 33.8716 19.9993 18.6471 27.742 11.7661 22.0549 15.3998
internal_count=516 305 170 135 50 211 145 189 118 85 169 45 98 76 124 54 66 104 43 84 58
is_linear=0
shrinkage=0.05


Tree=25
num_leaves=21
num_cat=0
split_feature=36 9 102 412 273 95 18 139 199 63 13 209 29 277 253 203 143 250 250 258
split_gain=35.8623 9.5576 8.60589 7.00018 6.10624 5.4168 10.5648 5.29337 5.11186 4.14728 4.14388 3.20804 2.77753 1.21082 0.48108 0.0121072 0.00417961 0.00297495 0.00205995 0.00140986
threshold=-0.69255654379372833 0.69346898463066931 0.67807034584937564 0.41435015175049383 0.12837474422108522 -0.84485683334897288 -0.98674020656454764 -0.82029915850198754 -0.32007232622755949 -0.078453971263327468 -0.22078970230017839 -0.64238578645781541 -1.9792970280535522 -0.51243958717750193 -0.18763264276625324 0.58010563491321931 0.063532588866915721 -0.58344047143680322 -0.051593692687330904 0.32214420370762076
decision_type=2 2 2 2 2 2 2 2 2 2 2 2 2 2 2 2 2 2 2 2
left_child=1 2 10 5 -5 6 -2 -4 -7 -3 -1 -11 -10 -14 -13 16 18 -18 19 -15
right_child=3 9 7 4 -6 8 -8 -9 12 11 -12 14 13 15 -16 -17 17 -19 -20 -21
leaf_value=-0.042472285221156453 0.049334029670331389 0.013638790729223516 0.0029327712621411784 -0.019820546452704469 0.040080573089639047 0.0075216430957239224 -0.039017543277478382 0.064013556179490061 -0.0041001623294794516 0.027743196706964592 0.01013257160424518 0.053765452236226023 -0.019912424592974241 -0.042636437026212455 0.069432582484207125 -0.046105790191905222 -0.045225497113692031 -0.04382450604366598 -0.044133140927524774 -0.043573464045210938
leaf_weight=8.6351587474346143 6.356620728969574 8.5823653936386091 6.8787773251533508 8.8068090975284594 8.2305091619491559 7.0806744098663321 7.2341984510421735 7.3231928050518036 5.5783377587795249 8.8135805428028124 6.6088204979896554 7.7518026828765896 5.8542719185352317 9.4361909776926023 13.317739367485045 6.4513355344533911 6.3151156306266776 9.473544776439665 5.77215144038201 6.9864583909511557
leaf_count=28 19 24 20 29 25 23 25 20 18 25 19 21 21 37 36 22 22 35 21 26
internal_value=0.000204133 0.0278628 0.00642421 -0.0198687 0.00911691 -0.0263208 0.00230575 0.0344288 -0.0325014 0.0442743 -0.0196662 0.0530728 -0.037574 -0.041287 0.0636684 -0.0441032 -0.043763 -0.0443849 -0.0433206 -0.0430351
internal_weight=161.488 67.9114 29.4459 93.5762 17.0373 76.5389 13.5908 14.202 62.9481 38.4655 15.244 29.8831 55.8674 50.2891 21.0695 44.4348 37.9835 15.7887 22.1948 16.4226
internal_count=516 193 87 323 54 269 44 40 225 106 47 82 202 184 57 163 141 57 84 63
is_linear=0
shrinkage=0.05


Tree=26
num_leaves=20
num_cat=0
split_feature=0 101 385 304 22 29 306 198 105 22 145 174 44 252 44 162 264 182 165
split_gain=26.9998 13.2929 15.8315 12.1609 11.623 10.6787 8.07567 6.22151 3.63265 3.54928 3.06223 0.660772 0.322574 0.0573295 0.0291777 0.00425878 0.00175825 0.00108835 0.000978928
threshold=0.23398133291148307 0.6414705215714106 -0.34409283298860122 0.30245348726649041 -0.84463796475351927 0.45588775466070369 1.3998458651167331 -0.36803947013856436 -0.071717746894441547 1.0640314259197967 0.63573859619741191 0.40170777737838953 0.088326428267617565 -0.52522657590149369 0.088326428267617565 0.28306381202184566 -0.28058843108927206 -0.7084378740426972 -0.12371292108079514
decision_type=2 2 2 2 2 2 2 2 2 2 2 2 2 2 2 2 2 2 2
left_child=1 2 7 8 5 -2 10 -1 14 12 11 13 -6 -3 15 -4 -15 -18 -19
right_child=4 6 3 -5 9 -7 -8 -9 -10 -11 -12 -13 -14 16 -16 -17 17 18 -20
leaf_value=0.0076215544984113322 0.037839794934082752 -0.047198396859450382 -0.043181578675668776 0.037736935031317913 0.058657697838737255 -0.038243098285175921 0.018220284972208952 0.067043339782801067 -0.00055154164110476044 0.028657512737388858 -0.01269113428373983 -0.025364764139607178 0.07201275720681731 -0.042257807469795634 -0.048502281995782104 -0.045108463424629638 -0.042570159309698111 -0.043755426927281606 -0.042863945258901581
leaf_weight=7.4092567861080196 9.3843128085136414 10.671106830239291 5.7739456593990415 7.9508754909038535 10.190435469150545 9.0689446330070496 7.9913998991250983 10.863742917776106 6.0477044880390158 11.005295246839525 11.496752619743345 5.3823348730802527 8.1276626288890821 8.2348343729972822 5.7513234019279471 5.6968434453010559 5.8457999378442755 7.5922941565513584 5.1806437969207879
leaf_count=23 26 35 22 23 28 29 26 30 20 31 39 20 22 33 18 20 23 28 20
internal_value=7.12308e-05 -0.0133644 0.00598584 -0.0156483 0.0315364 0.000448481 -0.0287136 0.0429493 -0.033889 0.0511001 -0.0356078 -0.0417482 0.0645833 -0.0440981 -0.0455958 -0.0441385 -0.0428662 -0.0431352 -0.0433938
internal_weight=159.666 111.889 49.4937 31.2207 47.7767 18.4533 62.3952 18.273 23.2698 29.3234 54.4038 42.907 18.3181 37.5247 17.2221 11.4708 26.8536 18.6187 12.7729
internal_count=516 380 156 103 136 55 224 53 80 81 198 159 50 139 60 42 104 71 48
is_linear=0
shrinkage=0.05


Tree=27
num_leaves=22
num_cat=0
split_feature=117 0 36 305 88 301 4 296 233 97 379 358 155 364 178 412 228 353 104 386 248
split_gain=29.6534 18.2304 20.3296 12.4183 10.4704 9.81333 6.14962 5.15786 3.8947 2.33828 1.20475 0.380331 0.331158 0.184922 0.0218355 0.0214194 0.00866316 0.00421194 0.00352916 0.00237802 0.000985133
threshold=-0.79442911869169175 -0.054632926566414046 -0.17308121301031329 -0.49079697713824483 -0.59779532865177565 -0.84619272872349838 -0.094697736379255812 -0.84480418382537781 1.648738316188963 -0.47564944614507615 -0.3584628495382563 0.022695463900668945 0.48212392804636811 1.2287953162598495 -0.29118256666058323 -0.72918213321758174 -0.10980509013358535 0.36872799909419768 -0.64940892274549566 0.27087443484810453 -0.065424517017297054
decision_type=2 2 2 2 2 2 2 2 2 2 2 2 2 2 2 2 2 2 2 2 2
left_child=4 2 5 -4 6 -2 -1 -3 13 -5 -6 -11 -12 15 -7 -9 -17 20 -19 -16 -18
right_child=1 7 3 9 10 14 -8 8 -10 11 12 -13 -14 -15 19 16 17 18 -20 -21 -22
leaf_value=-0.03185396676143018 0.027377140814762915 0.010716022884208726 -0.021602390001640055 0.023247779877127419 0.042651994653968794 -0.046538380985501018 0.03333992916980931 -0.047025764096164255 -0.0033110830631294733 0.06177101184361225 0.059735721279291977 0.047420520614260595 0.074251212295085897 -0.034321529298508256 -0.043406832117351385 -0.045010851668452 -0.043075135971703045 -0.043026088585878974 -0.044747664963876638 -0.04206107384243335 -0.042154926278764056
leaf_weight=6.3908190578222266 6.3399973511695888 6.1563139259815207 8.517191141843794 7.2148536741733578 7.708621710538865 5.8922275304794374 8.334630608558653 6.0167684555053702 7.1192240267992011 12.537140816450121 8.0962345302104932 7.3086813986301413 7.6344023644924173 5.2840097248554221 9.0190983116626686 10.124674811959261 5.4876479953527397 5.7119926512241364 6.2168198376893979 5.1610656529664984 6.1881673932075607
leaf_count=21 20 21 25 20 22 20 25 20 24 34 22 20 21 20 34 36 21 22 22 21 25
internal_value=-0.000313577 -0.0124965 0.00638063 0.0310516 0.0380873 -0.0268516 0.00504589 -0.0325666 -0.0376762 0.0476242 0.0588451 0.0564861 0.0667804 -0.0431093 -0.0439801 -0.0442776 -0.0437873 -0.0432625 -0.0439233 -0.042917 -0.0425874
internal_weight=158.461 120.296 61.9903 35.5779 38.1647 26.4124 14.7254 58.3056 52.1493 27.0607 23.4393 19.8458 15.7306 45.0301 20.0724 39.7461 33.7293 23.6046 11.9288 14.1802 11.6758
internal_count=516 405 194 99 111 95 46 211 190 74 65 54 43 166 75 146 126 90 44 55 46
is_linear=0
shrinkage=0.05


Tree=28
num_leaves=20
num_cat=0
split_feature=36 88 248 36 66 29 155 88 174 7 3 202 85 6 154 406 252 331 411
split_gain=32.372 8.94742 6.96604 6.91108 7.81941 8.39024 8.56765 6.14755 5.58066 5.02969 2.40506 1.10964 0.424687 0.080758 0.0133154 0.00743744 0.00569879 0.00225195 0.00126014
threshold=-0.69255654379372833 -0.59779532865177565 -0.7190455451806439 0.43468146503943267 0.3273465116913008 -1.9792970280535522 0.65839128190626406 1.6584779416745541 -0.89412401432925448 0.81117909164316904 -1.039927711744804 -0.66344176227304208 0.7054102648891214 -0.07021245012307234 0.29211234886393744 0.1840491479898613 -0.54933912253398953 0.21771671929313169 -0.4016681197222956
decision_type=2 2 2 2 2 2 2 2 2 2 2 2 2 2 2 2 2 2 2
left_child=1 2 -1 16 12 -6 8 -3 -7 11 -10 -4 14 -13 -5 18 -2 -18 -12
right_child=3 7 9 4 5 6 -8 -9 10 -11 15 13 -14 -15 -16 -17 17 -19 -20
leaf_value=0.0012459059487030539 -0.04432315469800821 -0.044288425357396882 0.040314091564144922 -0.043057667554031759 0.047560167672057049 0.015791929595423117 0.029848146475634586 0.018961895713988989 -0.010824765866572031 0.018234231746129172 -0.043402164369486775 0.06639287600481765 -0.027941223072449447 0.060239843923903226 -0.046309531221261996 -0.044988778215497821 -0.042064103444871964 -0.043344488092268478 -0.042344288636199268
leaf_weight=10.977403044700621 8.5902184396982211 6.3719487190246591 7.2815898656845084 6.7587668448686617 7.4888067543506613 7.5212006419897035 10.420680373907087 9.6742067337036133 8.2120326608419401 11.562900871038435 5.2976247519254676 9.2754093408584612 5.5105949789285651 12.54544171690941 5.8923856765031815 6.2554475367069236 7.1195870041847211 6.6341145038604736 6.0072018057108023
leaf_count=32 31 23 20 26 22 24 32 27 28 32 20 25 20 34 20 22 29 25 24
internal_value=0.000229528 0.0264573 0.0365903 -0.0191288 -0.0113386 -0.00134047 -0.00971778 -0.00615489 -0.0221017 0.0461314 -0.0331603 0.0572154 -0.0395261 0.0628553 -0.0445723 -0.0436055 -0.0433128 -0.0426817 -0.04284
internal_weight=159.398 67.6889 51.6427 91.7087 69.3647 51.203 43.7142 16.0462 33.2935 40.6653 25.7723 29.1024 18.1617 21.8209 12.6512 17.5603 22.3439 13.7537 11.3048
internal_count=516 193 143 323 238 172 150 50 118 111 94 79 66 59 46 66 85 54 44
is_linear=0
shrinkage=0.05


Tree=29
num_leaves=21
num_cat=0
split_feature=0 44 284 264 397 203 142 83 340 116 403 383 91 115 275 386 0 275 113 341
split_gain=24.9588 15.7983 11.8714 11.1242 8.90081 6.93532 9.34549 6.05134 3.90822 3.45909 2.5942 2.54 0.968693 0.406768 0.187643 0.0511241 0.00518713 0.00428013 0.0015591 0.000408166
threshold=0.49912526908119642 -0.68478542613191384 -0.044860893505896164 -1.1759126807054254 0.53864579041707727 0.44356141317156855 -0.063268897057213599 0.071099389574469055 -0.20040327059138671 -0.55383750129429177 0.95625436249262641 0.19073722049869313 -0.37839798016987569 0.041769545816634911 -0.76096583977894738 -0.47451947201049782 -0.21009378138036178 1.0000000180025095e-35 -0.38912148945583608 -0.24248122654059379
decision_type=2 2 2 2 2 2 2 2 2 2 2 2 2 2 2 2 2 2 2 2
left_child=1 7 3 -3 5 11 -7 9 -2 -1 14 -5 -10 -4 -11 -16 18 -18 -17 -20
right_child=8 2 13 4 -6 6 -8 -9 12 10 -12 -13 -14 -15 15 16 17 -19 19 -21
leaf_value=-0.0018575074420644122 0.0093188207218924818 -0.045179256956205484 -0.045250596475156668 0.068395021758457686 -0.024023356410718573 -0.038424340292595165 0.04544850747337198 0.0069785491907559784 0.039270166991626748 -0.033734455089721997 -0.007019783133561816 0.035517876756662035 0.060587346929471479 -0.026616407967102563 -0.047351012545848607 -0.043002087575027659 -0.044547486074323683 -0.042652923280478844 -0.041660393416125749 -0.042270435821749323
leaf_weight=7.5780869275331488 7.0467311143875149 5.8972147256135932 6.2290509790182096 13.266116946935655 6.9516024887561789 5.8748670667409897 7.6408007442951185 11.277863979339598 8.8841233551502281 5.2032960057258597 5.8365111052989951 10.543942451477049 13.318593293428416 5.5273906737565994 8.2345967441797203 5.2002005726098988 6.373430773615846 5.6008735448122025 5.7500080168247187 5.2412666678428685
leaf_count=26 20 21 22 36 25 20 22 37 24 20 20 30 36 20 27 20 23 22 24 21
internal_value=8.32088e-05 -0.00942377 0.00873456 0.0193311 0.0279231 0.0375977 0.00899142 -0.0263865 0.041761 -0.0332258 -0.0382366 0.0538359 0.0520576 -0.0364896 -0.0426159 -0.0438855 -0.0428723 -0.0436613 -0.0422888 -0.0419513
internal_weight=157.477 128.227 61.931 50.1745 44.2773 37.3257 13.5157 66.2961 29.2494 55.0183 47.4402 23.8101 22.2027 11.7564 41.6037 36.4004 28.1658 11.9743 16.1915 10.9913
internal_count=516 436 196 154 133 108 42 240 80 203 177 66 60 42 157 137 110 45 65 45
is_linear=0
shrinkage=0.05


Tree=30
num_leaves=22
num_cat=0
split_feature=36 0 133 111 2 37 232 255 222 230 205 8 310 182 336 248 342 14 179 105 241
split_gain=27.3724 24.19 10.4227 6.19698 8.21621 5.78966 5.59089 4.96424 2.35511 2.27464 4.5803 0.146309 0.131519 0.0764259 0.0248491 0.00609474 0.00554991 0.00130526 0.00133808 0.000590327 0.000260808
threshold=-0.44815115577332204 0.03494620168467396 0.91520153728564668 0.5452899101256522 0.075691887575674813 1.1193604715041086 1.4556248378596801 -0.47880089817035215 -0.45941260534698097 -0.4761020688047935 -0.27839543597661043 -0.10111914294863709 0.43293348924704528 0.21974627137545075 -0.42696984096803736 -0.64972498988928029 -0.16226497188958319 0.66545389106113684 0.88681464127428578 -0.37801144332412245 0.40702915086345115
decision_type=2 2 2 2 2 2 2 2 2 2 2 2 2 2 2 2 2 2 2 2 2
left_child=6 2 5 12 -5 7 9 -2 -9 10 -1 13 16 -10 -13 -11 -3 18 19 -17 -21
right_child=1 3 -4 4 -6 -7 -8 8 11 15 -12 14 -14 -15 -16 17 -18 -19 -20 20 -22
leaf_value=-0.042337780346060075 0.0069846775382539222 -0.044845966640042867 -0.019545845760493275 -0.032296948939176708 0.043206534847139544 0.0016946001811709759 0.010322756338554201 0.025954529538799162 0.056758583717968616 -0.043928575388004584 0.012727245542633367 0.062940855089721581 -0.034137036716132219 0.05033208134675924 0.059022459369512295 -0.041253648655182412 -0.042706170938439647 -0.042763562704363219 -0.042555274173008223 -0.042141772118466127 -0.041629904838940107
leaf_weight=8.9465216696262342 7.0324125885963431 5.5889163911342647 8.529956638813017 7.6047856807708758 6.8473556935787201 8.6327734887599927 7.9896176457405081 7.134416162967681 13.408640444278712 5.3924980163574174 6.5349012762308112 7.7668587863445309 5.1178064048290244 7.0632420182228079 8.4458569884300285 5.5616826117038718 6.619100257754325 5.6450038254261008 5.8199333846569052 5.1950421035289853 4.7767210304737091
leaf_count=36 20 20 27 27 19 25 24 20 37 20 21 21 20 20 23 24 26 22 23 21 20
internal_value=-0.000372532 0.015315 0.0321419 -0.0206994 0.00347624 0.0395539 -0.0283969 0.045981 0.0522395 -0.034859 -0.0190941 0.0573513 -0.0408652 0.0545413 0.0608996 -0.0423939 -0.0436858 -0.0420874 -0.0419086 -0.0416664 -0.0418966
internal_weight=155.654 99.7921 68.0142 31.778 14.4521 59.4842 55.8619 50.8514 43.819 47.8723 15.4814 36.6846 17.3258 20.4719 16.2127 32.3909 12.208 26.9984 21.3534 15.5334 9.97176
internal_count=516 305 193 112 46 166 211 141 121 187 57 101 66 57 44 130 46 110 88 65 41
is_linear=0
shrinkage=0.05


Tree=31
num_leaves=21
num_cat=0
split_feature=36 328 0 36 66 29 155 174 132 88 3 354 390 224 358 171 406 252 331 114
split_gain=29.542 8.46955 6.87225 6.64886 7.39515 7.69296 7.94341 5.21112 4.9328 4.37066 2.34314 1.75459 1.18614 0.417269 0.0798244 0.01368 0.0071502 0.00448261 0.00211892 0.00103346
threshold=-0.69255654379372833 -0.8848889176029634 0.50643353722137296 0.43468146503943267 0.3273465116913008 -1.9792970280535522 0.65839128190626406 -0.89412401432925448 -0.55901159101946296 -0.59779532865177565 -1.039927711744804 -0.95973865891572596 0.78735613044250807 -0.12523438682595092 -0.1793978553628022 -0.2093871886673688 0.1840491479898613 -0.54933912253398953 0.21771671929313169 0.15488296567467277
decision_type=2 2 2 2 2 2 2 2 2 2 2 2 2 2 2 2 2 2 2 2
left_child=1 8 9 17 13 -6 7 -7 -1 11 -9 -3 14 -5 -13 -15 19 -2 -19 -12
right_child=3 2 -4 4 5 6 -8 10 -10 -11 16 12 -14 15 -16 -17 -18 18 -20 -21
leaf_value=0.023553319303650358 -0.043600994053329747 0.029598824372923424 -0.010211578296105563 -0.027170020368327788 0.04533551787832419 0.01495988345660223 0.028517264422819856 -0.010350307257009094 -0.032414656788632583 0.0081856505858301214 -0.041778922625146632 0.058572536041150362 0.03888855029557816 -0.045655740104413069 0.064817566104983362 -0.042302457844819522 -0.044376525609771303 -0.041506933085337726 -0.04277145714942359 -0.042755165732480289
leaf_weight=7.3013728559017173 8.2868556827306765 8.3547603785991615 7.1740682274103156 5.3864914029836681 7.5727489888668051 7.5451020300388292 10.502853512763975 8.1249074041843397 8.5436086654663068 7.6556082963943473 5.7895106524229139 9.5111315846443159 7.6629490852355948 5.7301117330789575 11.075307458639154 6.4821063876152012 6.0804547965526572 6.8473807871341688 6.4178707450628281 5.0981074422597885
leaf_count=21 31 23 22 20 22 24 32 28 27 23 24 26 21 20 30 26 22 29 25 20
internal_value=0.000282683 0.0253378 0.0351843 -0.0184753 -0.0108362 -0.00114513 -0.00930411 -0.0214749 -0.00662459 0.0425426 -0.0324304 0.0497282 0.0556814 -0.0387626 0.0619323 -0.0438759 -0.0430031 -0.0426887 -0.0421187 -0.042236
internal_weight=157.143 67.2788 51.4338 89.8645 68.3124 50.7137 43.1409 32.6381 15.845 44.2598 25.093 36.6041 28.2494 17.5987 20.5864 12.2122 16.9681 21.5521 13.2653 10.8876
internal_count=516 193 145 323 238 172 150 118 48 123 94 100 77 66 56 46 66 85 54 44
is_linear=0
shrinkage=0.05


Tree=32
num_leaves=22
num_cat=0
split_feature=0 96 8 280 306 113 354 111 340 166 331 222 315 275 36 252 248 187 88 210 408
split_gain=22.834 14.6509 16.6936 13.0853 9.37815 7.18201 4.52796 3.83642 3.58074 2.17357 2.1705 1.22775 0.954439 0.782337 0.150239 0.0576586 0.00830619 0.00487517 0.00252482 0.00261946 0.000671138
threshold=0.49912526908119642 -0.088879425139091195 -0.69759489049619072 -0.18655413214228814 1.3998458651167331 -0.5405736121964223 0.36838942188722296 -0.54114619414514931 -0.20040327059138671 0.22917086223207089 1.0247441684217025 -0.0956171932506482 -0.46349920303547149 0.43696760588862393 -0.66301090915636596 -0.53494766209332723 0.024426430525825299 -0.014284952518859294 0.50305752187840846 -0.13488395413953988 0.56061848775325396
decision_type=2 2 2 2 2 2 2 2 2 2 2 2 2 2 2 2 2 2 2 2 2
left_child=1 2 9 6 11 -3 7 -4 -2 -1 15 -5 -10 -9 -14 -7 -11 18 19 20 -17
right_child=8 5 3 4 -6 10 -8 13 12 16 -12 -13 14 -15 -16 17 -18 -19 -20 -21 -22
leaf_value=-0.010850602812603133 0.0090142200917575424 0.019061801152107097 0.016258973616081276 -0.016750831568405771 0.033406314611163376 -0.047382522817815603 0.0048427011174581435 0.068297548080303735 0.035199925743999848 -0.042200494777068359 -0.008779309040610998 -0.046030415952256716 0.062338972592532543 0.047354290081410427 0.052231215146047998 -0.042281613570105195 -0.044638601780853118 -0.043616703157190378 -0.041158822086073674 -0.043205408040202876 -0.041501076484356803
leaf_weight=8.0257439613342303 7.0484636425972012 6.1715415567159644 6.6755001842975643 6.0837789177894601 7.9331946671009055 6.7595447301864615 7.5740232169628134 11.740278929471971 7.3141230642795607 9.3853537291288358 5.2464525550603858 8.7006270736455917 7.3769662380218541 7.1898669600486746 7.3284611403942037 4.9906472265720403 5.5644236505031577 5.3380768746137646 7.1465215235948554 5.2530038207769403 6.1450499445199966
leaf_count=28 20 20 20 20 25 22 25 32 20 38 19 30 20 20 20 20 20 20 31 20 26
internal_value=8.75167e-05 -0.00913312 0.00403938 0.0187869 -0.0104493 -0.0312146 0.0388045 0.0488502 0.0400316 -0.0318399 -0.0388048 -0.0339819 0.0499603 0.0603431 0.0573018 -0.0432257 -0.043108 -0.0422525 -0.0419431 -0.042285 -0.0418509
internal_weight=154.992 125.924 78.8728 55.8973 22.7176 47.0508 33.1797 25.6056 29.068 22.9755 40.8793 14.7844 22.0196 18.9301 14.7054 35.6328 14.9498 28.8733 23.5352 16.3887 11.1357
internal_count=516 436 258 172 75 178 97 72 80 86 158 50 60 52 40 139 58 117 97 66 46
is_linear=0
shrinkage=0.05


Tree=33
num_leaves=20
num_cat=0
split_feature=117 30 134 296 296 88 296 4 185 142 199 404 379 161 36 221 162 100 335
split_gain=25.638 17.7027 14.9742 8.20683 7.53895 6.7936 5.27132 4.2153 2.82243 1.58545 0.963629 0.832777 0.805288 0.149219 0.0551408 0.017591 0.00509525 0.000840974 0.000862578
threshold=-0.83292610755053675 -0.071256663575534576 0.47714432345744756 0.46429353963125453 -1.154309894849012 -0.59779532865177565 0.98654061542481408 0.92634347666241823 -0.96341300240008432 -0.61552840881015214 -0.075543700366947311 -0.22236266406486474 -0.34983471054474186 1.2458732507921699 1.6085451753627338 0.88410367341950202 -0.82497891613016516 -0.56593117668133497 0.067412872120797815
decision_type=2 2 2 2 2 2 2 2 2 2 2 2 2 2 2 2 2 2 2
left_child=5 2 3 11 -3 7 8 -1 -6 -10 -4 -2 -7 14 15 16 -11 18 -18
right_child=1 4 10 -5 6 12 -8 -9 9 13 -12 -13 -14 -15 -16 -17 17 -19 -20
leaf_value=-0.019351386721103894 0.059768572302872539 0.018208141679119907 -0.046227263979899257 -0.0030542354761926602 -0.004542235960725071 0.042147919470761824 0.013464066880801035 0.038431635223465023 -0.016308246485459379 -0.043115578941326727 -0.017934924047436126 0.039243831356839086 0.062795168970323945 -0.034311910653374536 -0.046709227126345537 -0.044991678823765119 -0.04087385858438581 -0.041921922892515423 -0.041758913956760423
